{"learner":{"attributes":{"scikit_learn":"{\"_estimator_type\": \"classifier\"}"},"feature_names":["length_url","length_hostname","nb_dots","nb_hyphens","nb_numeric_chars","contains_scam_keyword","nb_at","nb_qm","nb_and","nb_underscore","nb_tilde","nb_percent","nb_slash","nb_hash","shortening_service","nb_www","ends_with_com","nb_subdomains","abnormal_subdomain","prefix_suffix","path_extension_php","domain_in_brand","brand_in_path","char_repeat3","ratio_digits_url","ratio_digits_host","ssl_valid","domain_age_days","quad9_blocked","vt_total_vendors","vt_malicious_count","vt_detection_ratio","external_favicon","login_form","iframe_present","popup_window","right_click_disabled","empty_title","web_traffic"],"feature_types":["int","int","int","int","int","int","int","int","int","int","int","int","int","int","int","int","int","int","int","int","int","int","int","int","float","float","int","int","int","int","int","float","int","int","int","int","int","int","int"],"gradient_booster":{"model":{"cats":{"enc":[],"feature_segments":[],"sorted_idx":[]},"gbtree_model_param":{"num_parallel_tree":"1","num_trees":"450"},"iteration_indptr":[0,1,2,3,4,5,6,7,8,9,10,11,12,13,14,15,16,17,18,19,20,21,22,23,24,25,26,27,28,29,30,31,32,33,34,35,36,37,38,39,40,41,42,43,44,45,46,47,48,49,50,51,52,53,54,55,56,57,58,59,60,61,62,63,64,65,66,67,68,69,70,71,72,73,74,75,76,77,78,79,80,81,82,83,84,85,86,87,88,89,90,91,92,93,94,95,96,97,98,99,100,101,102,103,104,105,106,107,108,109,110,111,112,113,114,115,116,117,118,119,120,121,122,123,124,125,126,127,128,129,130,131,132,133,134,135,136,137,138,139,140,141,142,143,144,145,146,147,148,149,150,151,152,153,154,155,156,157,158,159,160,161,162,163,164,165,166,167,168,169,170,171,172,173,174,175,176,177,178,179,180,181,182,183,184,185,186,187,188,189,190,191,192,193,194,195,196,197,198,199,200,201,202,203,204,205,206,207,208,209,210,211,212,213,214,215,216,217,218,219,220,221,222,223,224,225,226,227,228,229,230,231,232,233,234,235,236,237,238,239,240,241,242,243,244,245,246,247,248,249,250,251,252,253,254,255,256,257,258,259,260,261,262,263,264,265,266,267,268,269,270,271,272,273,274,275,276,277,278,279,280,281,282,283,284,285,286,287,288,289,290,291,292,293,294,295,296,297,298,299,300,301,302,303,304,305,306,307,308,309,310,311,312,313,314,315,316,317,318,319,320,321,322,323,324,325,326,327,328,329,330,331,332,333,334,335,336,337,338,339,340,341,342,343,344,345,346,347,348,349,350,351,352,353,354,355,356,357,358,359,360,361,362,363,364,365,366,367,368,369,370,371,372,373,374,375,376,377,378,379,380,381,382,383,384,385,386,387,388,389,390,391,392,393,394,395,396,397,398,399,400,401,402,403,404,405,406,407,408,409,410,411,412,413,414,415,416,417,418,419,420,421,422,423,424,425,426,427,428,429,430,431,432,433,434,435,436,437,438,439,440,441,442,443,444,445,446,447,448,449,450],"tree_info":[0,0,0,0,0,0,0,0,0,0,0,0,0,0,0,0,0,0,0,0,0,0,0,0,0,0,0,0,0,0,0,0,0,0,0,0,0,0,0,0,0,0,0,0,0,0,0,0,0,0,0,0,0,0,0,0,0,0,0,0,0,0,0,0,0,0,0,0,0,0,0,0,0,0,0,0,0,0,0,0,0,0,0,0,0,0,0,0,0,0,0,0,0,0,0,0,0,0,0,0,0,0,0,0,0,0,0,0,0,0,0,0,0,0,0,0,0,0,0,0,0,0,0,0,0,0,0,0,0,0,0,0,0,0,0,0,0,0,0,0,0,0,0,0,0,0,0,0,0,0,0,0,0,0,0,0,0,0,0,0,0,0,0,0,0,0,0,0,0,0,0,0,0,0,0,0,0,0,0,0,0,0,0,0,0,0,0,0,0,0,0,0,0,0,0,0,0,0,0,0,0,0,0,0,0,0,0,0,0,0,0,0,0,0,0,0,0,0,0,0,0,0,0,0,0,0,0,0,0,0,0,0,0,0,0,0,0,0,0,0,0,0,0,0,0,0,0,0,0,0,0,0,0,0,0,0,0,0,0,0,0,0,0,0,0,0,0,0,0,0,0,0,0,0,0,0,0,0,0,0,0,0,0,0,0,0,0,0,0,0,0,0,0,0,0,0,0,0,0,0,0,0,0,0,0,0,0,0,0,0,0,0,0,0,0,0,0,0,0,0,0,0,0,0,0,0,0,0,0,0,0,0,0,0,0,0,0,0,0,0,0,0,0,0,0,0,0,0,0,0,0,0,0,0,0,0,0,0,0,0,0,0,0,0,0,0,0,0,0,0,0,0,0,0,0,0,0,0,0,0,0,0,0,0,0,0,0,0,0,0,0,0,0,0,0,0,0,0,0,0,0,0,0,0,0,0,0,0,0,0,0,0,0,0,0,0,0,0,0,0,0,0,0,0,0,0,0,0,0,0,0,0,0,0,0,0,0,0,0,0,0,0,0,0,0,0,0,0,0,0],"trees":[{"base_weights":[8.899059E-3,-1.861916E0,1.5995802E-1,-1.9329125E0,1.9449541E-1,-1.9454441E0,1.0588236E0,-6.472303E-1,1.5922331E0,-1.9591974E0,-1.65E0,-1.14285715E-1,1.5862069E0,-1.0577778E0,1.3114753E-1,1.9030303E0,3.1111112E-1,-1.575833E-1,-1.8513224E0,1.14285715E-1,-1.7014085E0,6.666667E-1,1.3957447E-1,1.14285715E-1,-1.2E0,1.0666667E-1,-0E0,1.5403727E-1,4E-2,-1.1111112E0,1.0967742E0,1.2444445E-1,-1.8902527E0,-1.7552239E0,-7.2727275E-1,-0E0,8.888889E-2,-1.3442622E0,-3.3333334E-1,-9.62963E-1,2.857143E-1,-1.7777778E-2,-1.10769235E-1,1.1259259E-1,-4E-2,-1.516279E-1,-7.692308E-1,-1.4803739E-1,-1.5609756E0,-1.9354838E-1,-1.2235294E-1,-1.3932585E0,1.7777778E-2,-8.695652E-2,-5.882353E-1,-1.11999996E-1,1.4545455E-2,1.14285715E-1,7.4074075E-2,-8.888889E-2,-0E0,1.14285715E-1,-1.3694915E-1,-6.666667E-1,5.714286E-1,-1.2382608E-1,-1.0447761E0,-4.6153846E-1,2.857143E-1,-7.272727E-2,-0E0,-7.3846154E-2,5.084746E-1,-1.7777778E-2,-6E-2,8.888889E-2,-1.7777778E-2,1.01818174E-1,-1.11999996E-1,-8E-2,1.7777778E-2,5.3333335E-2,-1.7777778E-2,1.10769235E-1,2.4E-1,-7.272727E-2,4.0930234E-2],"categories":[],"categories_nodes":[],"categories_segments":[],"categories_sizes":[],"default_left":[0,0,0,0,0,0,0,0,0,0,0,0,0,0,0,0,0,0,0,0,0,0,0,0,0,0,0,0,0,0,0,0,0,0,0,0,0,0,0,0,0,0,0,0,0,0,0,0,0,0,0,0,0,0,0,0,0,0,0,0,0,0,0,0,0,0,0,0,0,0,0,0,0,0,0,0,0,0,0,0,0,0,0,0,0,0,0],"id":0,"left_children":[1,3,-1,5,7,9,11,13,15,17,19,-1,21,23,25,27,29,-1,31,-1,33,35,-1,-1,37,-1,39,-1,-1,41,43,-1,45,47,49,-1,-1,51,53,55,57,-1,-1,-1,-1,-1,59,-1,61,63,-1,65,-1,67,69,-1,-1,-1,71,-1,-1,-1,-1,73,75,-1,77,79,81,-1,-1,-1,83,-1,-1,-1,-1,-1,-1,-1,-1,-1,-1,-1,85,-1,-1],"loss_changes":[2.9296705E4,5.924717E2,0E0,1.4903418E2,1.6133026E2,1.2631836E1,2.4566792E1,2.7541084E1,1.991365E1,6.1035156E-1,3.0918274E1,0E0,9.4986725E-1,2.1605083E1,4.8087435E0,3.3572388E-1,1.3789247E1,0E0,4.9328125E1,0E0,8.0286255E0,1.111111E0,0E0,0E0,6.272133E0,0E0,8.116402E0,0E0,0E0,7.86325E-1,4.5477896E0,0E0,5.201416E-1,2.1032715E-1,4.4133167E0,0E0,0E0,3.8209991E0,5.1406646E-1,3.63165E0,5.3968253E0,0E0,0E0,0E0,0E0,0E0,8.547008E-1,0E0,3.01875E1,3.185868E0,0E0,7.798233E-1,0E0,9.345437E-1,8.0213904E-1,0E0,0E0,0E0,9.240911E0,0E0,0E0,0E0,0E0,2.777791E-2,1.7460316E0,0E0,1.5570963E1,1.4188035E0,8.253969E-1,0E0,0E0,0E0,3.1372101E0,0E0,0E0,0E0,0E0,0E0,0E0,0E0,0E0,0E0,0E0,0E0,4.36668E0,0E0,0E0],"parents":[2147483647,0,0,1,1,3,3,4,4,5,5,6,6,7,7,8,8,9,9,10,10,12,12,13,13,14,14,15,15,16,16,18,18,20,20,21,21,24,24,26,26,29,29,30,30,32,32,33,33,34,34,37,37,38,38,39,39,40,40,46,46,48,48,49,49,51,51,53,53,54,54,58,58,63,63,64,64,66,66,67,67,68,68,72,72,84,84],"right_children":[2,4,-1,6,8,10,12,14,16,18,20,-1,22,24,26,28,30,-1,32,-1,34,36,-1,-1,38,-1,40,-1,-1,42,44,-1,46,48,50,-1,-1,52,54,56,58,-1,-1,-1,-1,-1,60,-1,62,64,-1,66,-1,68,70,-1,-1,-1,72,-1,-1,-1,-1,74,76,-1,78,80,82,-1,-1,-1,84,-1,-1,-1,-1,-1,-1,-1,-1,-1,-1,-1,86,-1,-1],"split_conditions":[3E0,3.4E1,1.5995802E-1,1E0,2.857143E0,3E1,2.1E1,3.8E1,2E0,2.7E1,2.3E1,-1.14285715E-1,1E0,2.7E1,3.1E1,6.3E1,4.1E1,-1.575833E-1,2E1,1.14285715E-1,1E0,1E0,1.3957447E-1,1.14285715E-1,2E0,1.0666667E-1,3.9E1,1.5403727E-1,4E-2,3.6E1,5E0,1.2444445E-1,4E0,3.2E1,2E0,-0E0,8.888889E-2,1E0,2.9E1,1E0,3.2E1,-1.7777778E-2,-1.10769235E-1,1.1259259E-1,-4E-2,-1.516279E-1,2.9E1,-1.4803739E-1,2.5E1,1E0,-1.2235294E-1,3.6E1,1.7777778E-2,3.5E1,3.7E1,-1.11999996E-1,1.4545455E-2,1.14285715E-1,4E1,-8.888889E-2,-0E0,1.14285715E-1,-1.3694915E-1,2.4E1,2E0,-1.2382608E-1,2.9E1,1E0,1E0,-7.272727E-2,-0E0,-7.3846154E-2,3.3E1,-1.7777778E-2,-6E-2,8.888889E-2,-1.7777778E-2,1.01818174E-1,-1.11999996E-1,-8E-2,1.7777778E-2,5.3333335E-2,-1.7777778E-2,1.10769235E-1,4.1E1,-7.272727E-2,4.0930234E-2],"split_indices":[12,0,0,15,24,0,0,0,3,0,1,0,3,1,1,0,0,0,1,0,4,16,0,0,3,0,0,0,0,0,3,0,4,0,3,0,0,14,1,3,1,0,0,0,0,0,0,0,1,3,0,0,0,0,0,0,0,0,0,0,0,0,0,1,4,0,1,16,16,0,0,0,1,0,0,0,0,0,0,0,0,0,0,0,0,0,0],"split_type":[0,0,0,0,0,0,0,0,0,0,0,0,0,0,0,0,0,0,0,0,0,0,0,0,0,0,0,0,0,0,0,0,0,0,0,0,0,0,0,0,0,0,0,0,0,0,0,0,0,0,0,0,0,0,0,0,0,0,0,0,0,0,0,0,0,0,0,0,0,0,0,0,0,0,0,0,0,0,0,0,0,0,0,0,0,0,0],"sum_hessian":[7.865E3,4.0545E3,3.8105E3,3.91925E3,1.3525E2,3.90325E3,1.6E1,8.475E1,5.05E1,3.72425E3,1.79E2,2.5E0,1.35E1,5.525E1,2.95E1,4.025E1,1.025E1,3.3755E3,3.4875E2,2.5E0,1.765E2,2.75E0,1.075E1,2.5E0,5.275E1,2E0,2.75E1,3.925E1,1E0,3.5E0,6.75E0,3.5E0,3.4525E2,1.665E2,1E1,1.5E0,1.25E0,4.475E1,8E0,5.75E0,2.175E1,1.25E0,2.25E0,5.75E0,1E0,3.43E2,2.25E0,1.06E2,6.05E1,6.75E0,3.25E0,4.35E1,1.25E0,4.75E0,3.25E0,4E0,1.75E0,2.5E0,1.925E1,1.25E0,1E0,2.5E0,5.8E1,4.25E0,2.5E0,2.775E1,1.575E1,2.25E0,2.5E0,1.75E0,1.5E0,5.5E0,1.375E1,1.25E0,3E0,1.25E0,1.25E0,1.75E0,1.4E1,1E0,1.25E0,1.25E0,1.25E0,2.25E0,1.15E1,1.75E0,9.75E0],"tree_param":{"num_deleted":"0","num_feature":"39","num_nodes":"87","size_leaf_vector":"1"}},{"base_weights":[-8.453762E-3,-1.72873E0,1.4813504E-1,-1.7914474E0,1.4279528E-1,-1.8015712E0,8.565984E-1,-1.7670563E0,1.5582672E0,-1.8037823E0,1.1455589E-1,-1.1342749E-1,1.2028999E-1,-1.7966269E0,-4.2145662E-2,1.0880249E0,1.4645123E-1,-1.4603576E-1,-1.6347357E0,-1.4622115E-1,-4.2715073E-2,5.487037E-1,1.4449139E-1,-1.6959041E0,1.5120885E0,5.4614305E-2,9.7602986E-2,-1.4611955E-1,-1.3587096E0,-1.0825717E-2,1.4286287E-1,1.573096E-1,-1.9148525E-2,1.19992495E-1,-1.4210784E0,-1.4351832E-2,3.834132E-1,-1.4992965E0,5.7825315E-1,4.170702E-2,5.7169115E-3,-1.2447978E-1,-5.6391448E-2,-8.123359E-3,1.0339398E-1],"categories":[],"categories_nodes":[],"categories_segments":[],"categories_sizes":[],"default_left":[0,0,0,0,0,0,0,0,0,0,0,0,0,0,0,0,0,0,0,0,0,0,0,0,0,0,0,0,0,0,0,0,0,0,0,0,0,0,0,0,0,0,0,0,0],"id":1,"left_children":[1,3,-1,5,7,9,11,13,15,17,-1,-1,-1,19,-1,21,-1,-1,23,-1,-1,25,-1,27,29,31,-1,-1,33,-1,-1,35,-1,-1,37,-1,39,41,43,-1,-1,-1,-1,-1,-1],"loss_changes":[2.5095861E4,4.7850293E2,0E0,1.07234375E2,3.6240506E2,3.0664062E1,2.5225891E1,1.147583E0,7.8629E0,1.1393555E1,0E0,0E0,0E0,1.2004395E0,0E0,1.0893188E1,0E0,0E0,9.0243286E1,0E0,0E0,6.222544E0,0E0,1.7214722E1,4.3961887E0,3.9898807E-1,0E0,0E0,2.5090424E1,0E0,0E0,7.900189E-1,0E0,0E0,2.0655487E1,0E0,2.2031647E-1,4.4007874E0,2.7945018E0,0E0,0E0,0E0,0E0,0E0,0E0],"parents":[2147483647,0,0,1,1,3,3,4,4,5,5,6,6,7,7,8,8,9,9,13,13,15,15,18,18,21,21,23,23,24,24,25,25,28,28,31,31,34,34,36,36,37,37,38,38],"right_children":[2,4,-1,6,8,10,12,14,16,18,-1,-1,-1,20,-1,22,-1,-1,24,-1,-1,26,-1,28,30,32,-1,-1,34,-1,-1,36,-1,-1,38,-1,40,42,44,-1,-1,-1,-1,-1,-1],"split_conditions":[3E0,3.4E1,1.4813504E-1,1E0,2E0,3E0,2.1E1,9.433962E0,1.5625E0,2E0,1.1455589E-1,-1.1342749E-1,1.2028999E-1,1E0,-4.2145662E-2,1E0,1.4645123E-1,-1.4603576E-1,1E0,-1.4622115E-1,-4.2715073E-2,3.8E1,1.4449139E-1,2.5E1,2.6E1,3E1,9.7602986E-2,-1.4611955E-1,1.8E1,-1.0825717E-2,1.4286287E-1,3.5E1,-1.9148525E-2,1.19992495E-1,1.5625E0,-1.4351832E-2,2.9E1,3.2E1,3.1E1,4.170702E-2,5.7169115E-3,-1.2447978E-1,-5.6391448E-2,-8.123359E-3,1.0339398E-1],"split_indices":[12,0,0,15,2,2,0,24,24,2,0,0,0,5,0,16,0,0,16,0,0,0,0,0,0,1,0,0,1,0,0,0,0,0,24,0,1,0,0,0,0,0,0,0,0],"split_type":[0,0,0,0,0,0,0,0,0,0,0,0,0,0,0,0,0,0,0,0,0,0,0,0,0,0,0,0,0,0,0,0,0,0,0,0,0,0,0,0,0,0,0,0,0],"sum_hessian":[7.8405605E3,4.073459E3,3.7671018E3,3.9414194E3,1.3203961E2,3.9267266E3,1.4692856E1,5.609884E1,7.594078E1,3.924485E3,2.2413065E0,2.9902256E0,1.170263E1,5.4354267E1,1.7445711E0,2.9685122E1,4.6255657E1,3.4699785E3,4.5450668E2,5.2609425E1,1.7448443E0,1.7960499E1,1.1724623E1,4.4629263E2,8.214042E0,1.0968924E1,6.9915757E0,3.1851852E2,1.277741E2,1.2422719E0,6.97177E0,8.473637E0,2.495286E0,2.2360895E0,1.2553801E2,3.4871833E0,4.9864535E0,1.21052284E2,4.485724E0,2.9922605E0,1.9941932E0,1.1209294E2,8.959349E0,2.7376597E0,1.7480645E0],"tree_param":{"num_deleted":"0","num_feature":"39","num_nodes":"45","size_leaf_vector":"1"}},{"base_weights":[1.6778596E-3,-8.827071E-1,1.5320404E0,5.476254E-1,-1.3246465E0,6.374917E-1,1.7066139E0,-1.3681309E-1,1.386203E-1,-1.596762E0,-4.413815E-1,1.3837385E-1,-9.7922903E-1,1.4428707E0,1.3811465E-1,-1.6598684E0,-1.2809043E0,1.3861077E-1,-9.487883E-1,-1.1728914E0,1.2847061E-1,1.5781182E0,-1.4179808E-1,-1.6620069E0,8.511509E-2,1.3715892E-1,-1.6690925E0,-1.5778368E0,5.7435656E-1,-1.2650089E0,5.883176E-1,1.3152328E0,1.376565E-1,-5.5850977E-1,1.0599201E-1,-1.6647199E0,-1.0236661E-1,-1.347651E-1,-1.1959138E0,-1.5935735E0,7.964795E-2,-8.4284997E-1,9.670347E-1,-1.5658238E0,-6.08053E-1,1.17005244E-1,-7.657388E-2,1.3620777E-1,-8.165655E-1,-9.0390116E-1,8.914675E-2,-1.3533401E-1,-1.5749475E0,-9.539149E-2,7.520952E-2,-1.3040094E0,-1.2226566E-2,-1.3662577E-1,-1.4640822E0,-1.2876469E0,1.2433769E-1,1.4118348E0,-1.0728434E0,-1.2826498E-1,-4.20829E-1,-1.4363787E0,2.8470613E-2,-7.8760386E-2,6.415325E-3,-1.1064053E0,-1.815682E-1,1.3505493E-1,-1.7188314E0,-1.2078895E-1,-4.0049505E-1,1.3135637E-1,-1.6219379E0,-1.3437006E0,6.6705793E-3,1.37934E-1,9.210299E-1,-1.333927E0,1.046897E-1,8.24835E-2,-1.0618101E-1,-1.18741445E-1,-4.876755E-2,-8.65346E-2,3.3987808E-1,-4.3907274E-2,-1.13269895E-1,-4.4999264E-2,2.2468196E-2,-1.3780119E-1,-4.442321E-3,-3.6738687E-3,-5.022112E-2,-1.360015E-1,-1.3690984E0,-1.22889906E-1,-1.0386672E0,-1.19560294E-1,1.3666722E-1,-1.4782976E0,4.0921893E-2,1.17005244E-1,-3.624433E-2,1.20553575E-1,-1.3570836E-1,1.0569702E-1,-1.17132425E-1,-1.2756309E-1,-5.3012535E-2,-8.223003E-2,2.1798445E-2],"categories":[],"categories_nodes":[],"categories_segments":[],"categories_sizes":[],"default_left":[0,0,0,0,0,0,0,0,0,0,0,0,0,0,0,0,0,0,0,0,0,0,0,0,0,0,0,0,0,0,0,0,0,0,0,0,0,0,0,0,0,0,0,0,0,0,0,0,0,0,0,0,0,0,0,0,0,0,0,0,0,0,0,0,0,0,0,0,0,0,0,0,0,0,0,0,0,0,0,0,0,0,0,0,0,0,0,0,0,0,0,0,0,0,0,0,0,0,0,0,0,0,0,0,0,0,0,0,0,0,0,0,0,0,0],"id":2,"left_children":[1,3,5,7,9,11,13,-1,-1,15,17,-1,19,21,-1,23,25,-1,27,29,-1,31,33,35,-1,-1,37,39,41,43,45,47,-1,49,-1,51,53,-1,55,57,-1,59,61,63,65,-1,-1,-1,67,69,-1,-1,71,-1,-1,73,-1,-1,75,77,-1,79,81,-1,83,85,87,-1,-1,89,91,-1,93,-1,95,-1,97,99,-1,-1,101,103,-1,-1,-1,-1,-1,-1,105,-1,-1,-1,-1,-1,-1,-1,-1,-1,107,-1,109,-1,-1,111,-1,-1,113,-1,-1,-1,-1,-1,-1,-1,-1],"loss_changes":[1.0422695E4,3.0858076E3,4.3936182E2,3.087402E3,8.955132E2,8.1770734E2,9.84082E0,0E0,0E0,5.468506E1,9.7192896E2,0E0,9.54843E1,3.68703E1,0E0,1.5586426E1,5.5983887E2,0E0,6.8481213E2,2.9056442E1,0E0,3.6452942E0,9.518719E0,9.861816E0,0E0,0E0,1.0933838E0,2.2055176E1,1.17326126E2,3.1883636E1,1.4041769E1,5.066774E1,0E0,7.8764725E0,0E0,3.0620117E0,7.0099773E0,0E0,1.7050304E0,4.937256E0,0E0,5.1002247E1,1.506844E2,4.1900024E0,2.8417555E1,0E0,0E0,0E0,1.5626235E0,1.321312E0,0E0,0E0,2.66292E2,0E0,0E0,2.2169209E0,0E0,0E0,1.2163965E2,3.1332016E0,0E0,1.916922E1,2.039801E1,0E0,7.881377E0,2.1942139E-2,1.12278385E1,0E0,0E0,5.914755E-1,7.700737E-1,0E0,3.1990967E0,0E0,3.0769175E-1,0E0,2.241272E0,6.2470245E-1,0E0,0E0,1.0678E2,8.091129E0,0E0,0E0,0E0,0E0,0E0,0E0,1.0733645E1,0E0,0E0,0E0,0E0,0E0,0E0,0E0,0E0,0E0,5.878531E1,0E0,1.9726759E1,0E0,0E0,1.3885574E0,0E0,0E0,6.379016E0,0E0,0E0,0E0,0E0,0E0,0E0,0E0,0E0],"parents":[2147483647,0,0,1,1,2,2,3,3,4,4,5,5,6,6,9,9,10,10,12,12,13,13,15,15,16,16,18,18,19,19,21,21,22,22,23,23,26,26,27,27,28,28,29,29,30,30,31,31,33,33,35,35,36,36,38,38,39,39,41,41,42,42,43,43,44,44,48,48,49,49,52,52,55,55,58,58,59,59,61,61,62,62,64,64,65,65,66,66,69,69,70,70,72,72,74,74,76,76,77,77,80,80,81,81,88,88,98,98,100,100,103,103,106,106],"right_children":[2,4,6,8,10,12,14,-1,-1,16,18,-1,20,22,-1,24,26,-1,28,30,-1,32,34,36,-1,-1,38,40,42,44,46,48,-1,50,-1,52,54,-1,56,58,-1,60,62,64,66,-1,-1,-1,68,70,-1,-1,72,-1,-1,74,-1,-1,76,78,-1,80,82,-1,84,86,88,-1,-1,90,92,-1,94,-1,96,-1,98,100,-1,-1,102,104,-1,-1,-1,-1,-1,-1,106,-1,-1,-1,-1,-1,-1,-1,-1,-1,108,-1,110,-1,-1,112,-1,-1,114,-1,-1,-1,-1,-1,-1,-1,-1],"split_conditions":[3.1E1,9E0,2E0,1.6E1,2.6E1,2.4E1,3.4E1,-1.3681309E-1,1.386203E-1,2.4E1,1.9E1,1.3837385E-1,1E0,2.5E1,1.3811465E-1,3E0,1.7E1,1.3861077E-1,2E0,4.4E1,1.2847061E-1,3.2E1,1E0,1E0,8.511509E-2,1.3715892E-1,5.714286E0,1E0,2.8E1,1E0,3.7E1,2.4E1,1.376565E-1,1E0,1.0599201E-1,2.2E1,2E1,-1.347651E-1,2E0,2.8E1,7.964795E-2,5.263158E0,2.2E1,4E1,1E0,1.17005244E-1,-7.657388E-2,1.3620777E-1,1E0,1E0,8.914675E-2,-1.3533401E-1,1.5E1,-9.539149E-2,7.520952E-2,1E0,-1.2226566E-2,-1.3662577E-1,2.1E1,2E0,1.2433769E-1,2.1E1,1E0,-1.2826498E-1,3.2E1,4E0,3.3E1,-7.8760386E-2,6.415325E-3,2.6E1,3.3E1,1.3505493E-1,5E0,-1.2078895E-1,2E0,1.3135637E-1,3E1,2.7E1,6.6705793E-3,1.37934E-1,2.9E1,1E0,1.046897E-1,8.24835E-2,-1.0618101E-1,-1.18741445E-1,-4.876755E-2,-8.65346E-2,2.6E1,-4.3907274E-2,-1.13269895E-1,-4.4999264E-2,2.2468196E-2,-1.3780119E-1,-4.442321E-3,-3.6738687E-3,-5.022112E-2,-1.360015E-1,2.3E1,-1.22889906E-1,2E1,-1.19560294E-1,1.3666722E-1,1E0,4.0921893E-2,1.17005244E-1,3.5E1,1.20553575E-1,-1.3570836E-1,1.0569702E-1,-1.17132425E-1,-1.2756309E-1,-5.3012535E-2,-8.223003E-2,2.1798445E-2],"split_indices":[0,1,2,0,0,1,0,0,0,0,1,0,20,1,0,2,1,0,2,0,0,0,4,15,0,0,25,15,0,3,1,1,0,16,0,0,0,0,2,0,0,25,1,0,16,0,0,0,3,3,0,0,1,0,0,3,0,0,1,3,0,1,16,0,1,4,0,0,0,1,0,0,4,0,4,0,0,0,0,0,0,4,0,0,0,0,0,0,1,0,0,0,0,0,0,0,0,0,1,0,1,0,0,3,0,0,0,0,0,0,0,0,0,0,0],"split_type":[0,0,0,0,0,0,0,0,0,0,0,0,0,0,0,0,0,0,0,0,0,0,0,0,0,0,0,0,0,0,0,0,0,0,0,0,0,0,0,0,0,0,0,0,0,0,0,0,0,0,0,0,0,0,0,0,0,0,0,0,0,0,0,0,0,0,0,0,0,0,0,0,0,0,0,0,0,0,0,0,0,0,0,0,0,0,0,0,0,0,0,0,0,0,0,0,0,0,0,0,0,0,0,0,0,0,0,0,0,0,0,0,0,0,0],"sum_hessian":[7.698951E3,4.8795303E3,2.8194207E3,1.1517296E3,3.7278008E3,4.6113367E2,2.358287E3,3.9629834E2,7.554313E2,2.849211E3,8.7858997E2,2.7517105E2,1.8596263E2,1.6998787E2,2.1882993E3,2.3712043E3,4.7800662E2,1.6579901E2,7.1279095E2,1.7351047E2,1.2452162E1,1.566245E2,1.3363366E1,2.3697336E3,1.4706844E0,5.444834E1,4.235583E2,5.0442923E2,2.0836176E2,1.6515407E2,8.356407E0,5.867362E1,9.795088E1,1.0888874E1,2.4744918E0,2.365551E3,4.182426E0,4.0766888E2,1.5889412E1,5.017418E2,2.6874268E0,4.4958076E1,1.6340369E2,1.1233383E2,5.2820236E1,5.3715205E0,2.9848864E0,4.982192E1,8.851701E0,9.406401E0,1.4824735E0,1.8055647E3,5.5998645E2,1.9742957E0,2.2081301E0,1.4170734E1,1.7186778E0,2.600839E2,2.4165791E2,3.8311817E1,6.64626E0,1.3440437E2,2.8999302E1,1.0838491E2,3.948921E0,2.2406042E1,3.0414194E1,7.373067E0,1.4786344E0,6.931471E0,2.47493E0,2.3195862E1,5.367906E2,1.0994664E1,3.1760705E0,1.1232893E1,2.3042502E2,3.6826134E1,1.4856831E0,8.059932E1,5.380506E1,2.6530584E1,2.4687164E0,1.4649601E0,2.4839609E0,2.0427597E1,1.9784452E0,6.1206903E0,2.4293505E1,3.4639764E0,3.4674945E0,1.2383909E0,1.2365391E0,5.35569E2,1.2216293E0,1.7101152E0,1.4659551E0,1.716828E2,5.874221E1,2.0106503E1,1.6719631E1,1.3005344E1,4.0799717E1,2.4790186E1,1.7403998E0,5.3715205E0,1.8921984E1,5.6330113E0,5.31092E1,2.23248E0,1.4487151E1,2.0862074E1,3.9281116E0,3.9393344E0,1.4982649E1],"tree_param":{"num_deleted":"0","num_feature":"39","num_nodes":"115","size_leaf_vector":"1"}},{"base_weights":[-3.150221E-3,-8.364982E-1,1.4501736E0,5.130678E-1,-1.2499006E0,6.2734294E-1,1.6116703E0,-1.2900567E-1,1.3101372E-1,-1.5078388E0,-4.1268462E-1,1.3078593E-1,-8.845939E-1,1.3523295E0,1.3045569E-1,-1.5654696E0,-1.2140043E0,1.3088267E-1,-8.9088756E-1,-1.2406E0,5.5606306E-1,1.4733614E0,-5.9106346E-2,-1.5681845E0,7.2307535E-2,1.2937279E-1,-1.5744191E0,-1.4936612E0,5.418134E-1,-1.2142631E-1,-5.33916E-1,1.2735072E-1,-1.0029457E0,1.1869413E0,1.3003607E-1,-4.5322198E-1,1.0027596E-1,-1.5707248E0,-2.3980615E-1,-1.2714812E-1,-1.104565E0,-1.5072454E0,7.1645424E-2,8.0659196E-2,1.3029604E-1,-1.1546352E-1,1.11085065E-1,-1.1386136E-1,4.6014598E-1,1.2867959E-1,-9.5256215E-1,-7.297322E-1,8.012989E-2,-1.270641E-1,-1.4290605E0,-8.673244E-2,8.621192E-2,-1.21041E0,-1.1610744E-2,-1.284505E-1,-1.3901954E0,-3.0078402E-1,1.5222583E0,-9.000937E-2,5.062671E-1,8.652198E-2,-4.4328216E-2,-8.2806334E-2,-2.3320533E-2,-9.4376504E-1,7.929738E-3,1.2819304E-1,-1.6288381E0,-1.1310131E-1,-3.8003743E-1,1.2490377E-1,-1.541557E0,-1.250302E0,1.6470066E-1,6.660576E-1,1.2566465E-1,1.0941075E-1,1.5093523E-1,-4.1312527E-2,-9.1938615E-2,-1.3060814E-1,-3.7091624E-2,9.917049E-3,-5.599162E-2,-1.2968202E-1,-1.2848943E0,-1.0445457E-1,6.34986E-3,1.2902133E-1,-6.7365086E-1,1.12055205E-2,7.1311794E-2,-8.844634E-1,5.176257E-1,1.1491508E-1,-1.295658E-1,-1.05810165E-1,1.7359933E-2,-2.919972E-2,-8.623359E-2,1.098334E-1,-1.5617803E-3],"categories":[],"categories_nodes":[],"categories_segments":[],"categories_sizes":[],"default_left":[0,0,0,0,0,0,0,0,0,0,0,0,0,0,0,0,0,0,0,0,0,0,0,0,0,0,0,0,0,0,0,0,0,0,0,0,0,0,0,0,0,0,0,0,0,0,0,0,0,0,0,0,0,0,0,0,0,0,0,0,0,0,0,0,0,0,0,0,0,0,0,0,0,0,0,0,0,0,0,0,0,0,0,0,0,0,0,0,0,0,0,0,0,0,0,0,0,0,0,0,0,0,0,0,0,0,0],"id":3,"left_children":[1,3,5,7,9,11,13,-1,-1,15,17,-1,19,21,-1,23,25,-1,27,29,31,33,35,37,-1,-1,39,41,43,-1,45,-1,47,49,-1,51,-1,53,55,-1,57,59,-1,61,-1,-1,63,-1,65,-1,67,69,-1,-1,71,-1,-1,73,-1,-1,75,77,79,-1,81,-1,-1,-1,-1,83,-1,-1,85,-1,87,-1,89,91,93,95,-1,-1,97,-1,-1,-1,-1,-1,-1,-1,99,-1,-1,-1,101,-1,-1,103,105,-1,-1,-1,-1,-1,-1,-1,-1],"loss_changes":[9.088953E3,2.6616755E3,3.6241895E2,2.6779624E3,7.879126E2,6.874459E2,9.072754E0,0E0,0E0,4.536328E1,8.453696E2,0E0,9.338779E1,2.7773987E1,0E0,1.7036621E1,4.7408502E2,0E0,6.044874E2,2.7643143E1,6.0544693E1,4.574951E0,7.687047E0,7.4785156E0,0E0,0E0,1.1241455E0,1.7327637E1,1.0399283E2,0E0,2.5067818E1,0E0,9.993369E0,5.1582382E1,0E0,5.284026E0,0E0,3.5141602E0,7.423643E0,0E0,1.4410934E0,3.4094238E0,0E0,8.124068E1,0E0,0E0,1.3159886E1,0E0,3.2113254E0,0E0,2.3078728E-1,1.8833871E0,0E0,0E0,1.6394379E2,0E0,0E0,1.8609886E0,0E0,0E0,1.05681335E2,5.1920303E1,2.3834229E-1,0E0,5.9819536E0,0E0,0E0,0E0,0E0,1.1897087E-1,0E0,0E0,3.413086E-1,0E0,7.5764537E-1,0E0,2.4125366E0,2.946537E0,9.747454E1,2.7747703E-1,0E0,0E0,6.3191805E0,0E0,0E0,0E0,0E0,0E0,0E0,0E0,5.417601E1,0E0,0E0,0E0,2.976021E1,0E0,0E0,4.9411535E-2,5.554199E0,0E0,0E0,0E0,0E0,0E0,0E0,0E0,0E0],"parents":[2147483647,0,0,1,1,2,2,3,3,4,4,5,5,6,6,9,9,10,10,12,12,13,13,15,15,16,16,18,18,19,19,20,20,21,21,22,22,23,23,26,26,27,27,28,28,30,30,32,32,33,33,35,35,37,37,38,38,40,40,41,41,43,43,46,46,48,48,50,50,51,51,54,54,57,57,60,60,61,61,62,62,64,64,69,69,72,72,74,74,76,76,77,77,78,78,79,79,82,82,90,90,94,94,97,97,98,98],"right_children":[2,4,6,8,10,12,14,-1,-1,16,18,-1,20,22,-1,24,26,-1,28,30,32,34,36,38,-1,-1,40,42,44,-1,46,-1,48,50,-1,52,-1,54,56,-1,58,60,-1,62,-1,-1,64,-1,66,-1,68,70,-1,-1,72,-1,-1,74,-1,-1,76,78,80,-1,82,-1,-1,-1,-1,84,-1,-1,86,-1,88,-1,90,92,94,96,-1,-1,98,-1,-1,-1,-1,-1,-1,-1,100,-1,-1,-1,102,-1,-1,104,106,-1,-1,-1,-1,-1,-1,-1,-1],"split_conditions":[3.1E1,9E0,2E0,1.6E1,2.6E1,2.4E1,3.4E1,-1.2900567E-1,1.3101372E-1,2.4E1,1.9E1,1.3078593E-1,3.9E1,2.5E1,1.3045569E-1,3E0,1.7E1,1.3088267E-1,2E0,1E0,3.2E1,3.2E1,1E0,1E0,7.2307535E-2,1.2937279E-1,5.714286E0,1E0,1E0,-1.2142631E-1,1E0,1.2735072E-1,4.8E1,2.4E1,1.3003607E-1,1E0,1.0027596E-1,2.3E1,2.1E1,-1.2714812E-1,2E0,2.8E1,7.1645424E-2,4.5454545E0,1.3029604E-1,-1.1546352E-1,3.3E1,-1.1386136E-1,3.8E1,1.2867959E-1,1E0,1E0,8.012989E-2,-1.270641E-1,1.6E1,-8.673244E-2,8.621192E-2,1E0,-1.1610744E-2,-1.284505E-1,2.1E1,2.8E1,5.263158E0,-9.000937E-2,2.6E1,8.652198E-2,-4.4328216E-2,-8.2806334E-2,-2.3320533E-2,2.6E1,7.929738E-3,1.2819304E-1,4E0,-1.1310131E-1,2E0,1.2490377E-1,3E1,2E0,2.1E1,1E0,1.2566465E-1,1.0941075E-1,3.5E1,-4.1312527E-2,-9.1938615E-2,-1.3060814E-1,-3.7091624E-2,9.917049E-3,-5.599162E-2,-1.2968202E-1,2.3E1,-1.0445457E-1,6.34986E-3,1.2902133E-1,3E1,1.12055205E-2,7.1311794E-2,2E0,2.8E1,1.1491508E-1,-1.295658E-1,-1.05810165E-1,1.7359933E-2,-2.919972E-2,-8.623359E-2,1.098334E-1,-1.5617803E-3],"split_indices":[0,1,2,0,0,1,0,0,0,0,1,0,0,1,0,2,1,0,2,3,1,0,4,15,0,0,25,15,16,0,16,0,0,1,0,16,0,0,0,0,2,0,0,25,0,0,0,0,1,0,3,3,0,0,1,0,0,3,0,0,1,0,25,0,1,0,0,0,0,1,0,0,4,0,4,0,0,3,1,3,0,0,0,0,0,0,0,0,0,0,1,0,0,0,0,0,0,3,1,0,0,0,0,0,0,0,0],"split_type":[0,0,0,0,0,0,0,0,0,0,0,0,0,0,0,0,0,0,0,0,0,0,0,0,0,0,0,0,0,0,0,0,0,0,0,0,0,0,0,0,0,0,0,0,0,0,0,0,0,0,0,0,0,0,0,0,0,0,0,0,0,0,0,0,0,0,0,0,0,0,0,0,0,0,0,0,0,0,0,0,0,0,0,0,0,0,0,0,0,0,0,0,0,0,0,0,0,0,0,0,0,0,0,0,0,0,0],"sum_hessian":[7.502555E3,4.7686157E3,2.7339395E3,1.1181467E3,3.650469E3,4.493534E2,2.2845862E3,3.8673544E2,7.3141125E2,2.790073E3,8.6039594E2,2.696143E2,1.797391E2,1.6107413E2,2.123512E3,2.3289583E3,4.6111484E2,1.62366E2,6.980299E2,1.4423543E2,3.550369E1,1.4831235E2,1.2761787E1,2.3267651E3,2.1931503E0,5.1678455E1,4.0943637E2,4.9128946E2,2.0674048E2,1.0277101E2,4.146441E1,2.1318426E1,1.4185262E1,5.4493206E1,9.381914E1,1.0318267E1,2.44352E0,2.3221418E3,4.623288E0,3.9451566E2,1.4920723E1,4.88879E2,2.4104385E0,1.4590767E2,6.0832798E1,1.6692385E1,2.4772024E1,1.1040682E1,3.14458E0,4.573089E1,8.76232E0,9.089176E0,1.2290907E0,2.0567478E3,2.653941E2,2.9254606E0,1.6978275E0,1.3202612E1,1.718111E0,2.5870667E2,2.3017235E2,1.1600454E2,2.9903133E1,5.5532737E0,1.921875E1,1.9088148E0,1.2357652E0,7.286922E0,1.4753978E0,7.1136093E0,1.9755673E0,1.5974355E1,2.4941974E2,1.004102E1,3.1615922E0,1.0773731E1,2.1939862E2,3.7606655E1,7.839788E1,2.3944738E0,2.750866E1,4.7807474E0,1.4438003E1,3.4503808E0,3.6632283E0,2.482168E2,1.2029423E0,1.4652456E0,1.6963468E0,1.6346927E2,5.5929348E1,3.612031E1,1.486345E0,2.8407133E1,4.999075E1,1.2045057E0,1.189968E0,3.4067059E0,1.1031297E1,5.7645645E0,5.0164783E1,2.8638304E1,2.1352446E1,1.7077605E0,1.6989453E0,3.6552165E0,7.3760805E0],"tree_param":{"num_deleted":"0","num_feature":"39","num_nodes":"107","size_leaf_vector":"1"}},{"base_weights":[-9.31921E-4,-1.4538758E0,1.2516944E-1,-1.5094066E0,1.03628576E-1,-1.5180385E0,7.8011847E-1,-5.9354436E-1,1.2302784E0,-1.2307096E-1,-1.3875517E0,-9.14377E-2,1.2151048E0,-9.032012E-1,-1.6526932E-2,1.4701773E0,2.362729E-1,1.2485168E-1,-1.4127824E0,4.8357984E-1,1.0803197E-1,8.238697E-2,-9.7673273E-1,-1.507952E-1,7.8109E-2,5.375009E-2,1.20568775E-1,-8.2533056E-1,9.244685E-1,-1.4409038E0,-7.787021E-1,-1.5639203E-2,7.6378725E-2,-1.1770527E0,-1.0994879E-1,-7.455032E-2,-5.518285E-2,-2.1837587E-2,-8.7803334E-2,8.2523584E-2,1.7185638E-2,-1.16190284E-1,-7.715013E-1,-1.0506743E0,-2.0356625E-1,-1.2323732E0,-1.9224324E-3,6.8481475E-2,-3.1617263E-1,-3.2463816E-1,6.988086E-2,-1.1089836E0,7.427982E-2,-1.1227292E0,-5.0212765E-1,1.9402813E-2,-5.7142157E-2,-1.0218781E-1,-5.307997E-2,-5.006567E-1,4.305213E-2,-5.876764E-1,2.4053985E-2,2.7104983E-1,-9.836149E-2,-1.0178798E-1,-3.858688E-2,-7.889498E-3,1.7217033E-2,-3.6128756E-2,-9.575205E-2,-6.941974E-2,2.3977775E-3,3.7381238E-1,-3.622305E-1,-1.6402665E-1,-7.1440655E-1,-6.675969E-2,-1.2622275E-2,3.4995355E-2,-3.7532914E-2,-2.0455998E-1,6.423795E-2,2.5826411E-2,-3.4974194E-1,-5.6792633E-3,5.6704182E-2,-5.7902336E-2,1.8910343E-2,-6.1662115E-2,6.8946615E-2,-1.7204914E-2,-7.294856E-2,-1.0365149E-3,-3.1266365E-2,-4.668851E-2,6.7353128E-3],"categories":[],"categories_nodes":[],"categories_segments":[],"categories_sizes":[],"default_left":[0,0,0,0,0,0,0,0,0,0,0,0,0,0,0,0,0,0,0,0,0,0,0,0,0,0,0,0,0,0,0,0,0,0,0,0,0,0,0,0,0,0,0,0,0,0,0,0,0,0,0,0,0,0,0,0,0,0,0,0,0,0,0,0,0,0,0,0,0,0,0,0,0,0,0,0,0,0,0,0,0,0,0,0,0,0,0,0,0,0,0,0,0,0,0,0,0],"id":4,"left_children":[1,3,-1,5,7,9,11,13,15,-1,17,-1,19,21,23,25,27,-1,29,31,-1,-1,33,35,-1,-1,-1,37,39,41,43,-1,-1,45,47,49,-1,-1,-1,-1,-1,-1,51,53,55,57,-1,-1,59,61,63,65,67,69,71,73,-1,-1,-1,75,-1,77,79,81,83,-1,-1,-1,-1,-1,-1,-1,-1,85,87,89,91,-1,-1,-1,-1,93,-1,-1,95,-1,-1,-1,-1,-1,-1,-1,-1,-1,-1,-1,-1],"loss_changes":[1.6540684E4,3.263506E2,0E0,7.315723E1,1.034497E2,7.4990234E0,1.3383627E1,1.454002E1,1.1650841E1,0E0,3.9374573E1,0E0,5.5231285E-1,8.538166E0,4.0755844E0,1.7679596E-1,8.780423E0,0E0,7.7217407E0,1.2932528E0,0E0,0E0,8.823795E0,1.0508785E0,0E0,0E0,0E0,4.2879605E-1,3.2015133E-1,2.5183716E0,3.421054E0,0E0,0E0,2.6354141E0,2.418626E0,9.1197705E-1,0E0,0E0,0E0,0E0,0E0,0E0,2.9701362E0,5.035591E-2,1.0046818E0,1.7198944E-1,0E0,0E0,1.7849975E0,8.570755E-1,5.8272684E-1,1.3303757E-1,1.1437297E-1,1.0279846E-1,7.2890717E-1,1.0862962E0,0E0,0E0,0E0,4.8913026E-1,0E0,4.2836356E-1,1.2068316E0,2.1246421E0,1.1379042E0,0E0,0E0,0E0,0E0,0E0,0E0,0E0,0E0,6.6680044E-1,1.013644E0,3.5091615E0,2.8265452E-1,0E0,0E0,0E0,0E0,1.6938792E-1,0E0,0E0,7.1307796E-1,0E0,0E0,0E0,0E0,0E0,0E0,0E0,0E0,0E0,0E0,0E0,0E0],"parents":[2147483647,0,0,1,1,3,3,4,4,5,5,6,6,7,7,8,8,10,10,12,12,13,13,14,14,15,15,16,16,18,18,19,19,22,22,23,23,27,27,28,28,29,29,30,30,33,33,34,34,35,35,42,42,43,43,44,44,45,45,48,48,49,49,50,50,51,51,52,52,53,53,54,54,55,55,59,59,61,61,62,62,63,63,64,64,73,73,74,74,75,75,76,76,81,81,84,84],"right_children":[2,4,-1,6,8,10,12,14,16,-1,18,-1,20,22,24,26,28,-1,30,32,-1,-1,34,36,-1,-1,-1,38,40,42,44,-1,-1,46,48,50,-1,-1,-1,-1,-1,-1,52,54,56,58,-1,-1,60,62,64,66,68,70,72,74,-1,-1,-1,76,-1,78,80,82,84,-1,-1,-1,-1,-1,-1,-1,-1,86,88,90,92,-1,-1,-1,-1,94,-1,-1,96,-1,-1,-1,-1,-1,-1,-1,-1,-1,-1,-1,-1],"split_conditions":[3E0,3.4E1,1.2516944E-1,1E0,2.7777777E0,2.7E1,2.1E1,1E0,2E0,-1.2307096E-1,2E1,-9.14377E-2,1E0,2.7E1,1E0,3.1007752E0,4.1E1,1.2485168E-1,1.5625E0,1E0,1.0803197E-1,8.238697E-2,3.9E1,4E0,7.8109E-2,5.375009E-2,1.20568775E-1,3.7E1,4E0,1E0,3.1E1,-1.5639203E-2,7.6378725E-2,1E0,3.2E1,3.6E1,-5.518285E-2,-2.1837587E-2,-8.7803334E-2,8.2523584E-2,1.7185638E-2,-1.16190284E-1,3.1E1,1.1235955E1,2.6E1,3.8E1,-1.9224324E-3,6.8481475E-2,1E0,1E0,2E0,3E1,3.2E1,3.5714285E0,2.9E1,6.382979E0,-5.7142157E-2,-1.0218781E-1,-5.307997E-2,3.3E1,4.305213E-2,2E0,2.8E1,3.9E1,3.2E1,-1.0178798E-1,-3.858688E-2,-7.889498E-3,1.7217033E-2,-3.6128756E-2,-9.575205E-2,-6.941974E-2,2.3977775E-3,1E0,1.2571428E1,4E1,1E0,-6.675969E-2,-1.2622275E-2,3.4995355E-2,-3.7532914E-2,3.7E1,6.423795E-2,2.5826411E-2,4.3E1,-5.6792633E-3,5.6704182E-2,-5.7902336E-2,1.8910343E-2,-6.1662115E-2,6.8946615E-2,-1.7204914E-2,-7.294856E-2,-1.0365149E-3,-3.1266365E-2,-4.668851E-2,6.7353128E-3],"split_indices":[12,0,0,15,24,0,0,3,3,0,1,0,3,1,5,24,0,0,24,16,0,0,0,3,0,0,0,0,3,5,0,0,0,5,1,0,0,0,0,0,0,0,0,24,1,0,0,0,14,16,3,0,0,24,0,24,0,0,0,1,0,3,1,0,1,0,0,0,0,0,0,0,0,3,24,0,16,0,0,0,0,0,0,0,0,0,0,0,0,0,0,0,0,0,0,0,0],"split_type":[0,0,0,0,0,0,0,0,0,0,0,0,0,0,0,0,0,0,0,0,0,0,0,0,0,0,0,0,0,0,0,0,0,0,0,0,0,0,0,0,0,0,0,0,0,0,0,0,0,0,0,0,0,0,0,0,0,0,0,0,0,0,0,0,0,0,0,0,0,0,0,0,0,0,0,0,0,0,0,0,0,0,0,0,0,0,0,0,0,0,0,0,0,0,0,0,0],"sum_hessian":[7.269729E3,3.7705015E3,3.4992273E3,3.640727E3,1.2977457E2,3.627388E3,1.3338963E1,8.045936E1,4.9315216E1,3.128698E3,4.9869E2,2.1603549E0,1.1178608E1,5.1992336E1,2.846702E1,3.9341316E1,9.973901E0,3.7152257E0,4.9497476E2,2.4587383E0,8.719869E0,1.4286922E0,5.0563644E1,2.5823092E1,2.6439278E0,2.5882332E0,3.6753086E1,3.844361E0,6.1295395E0,4.727366E2,2.2238167E1,1.2468085E0,1.2119299E0,4.0780926E1,9.782719E0,2.3620134E1,2.2029586E0,1.9302851E0,1.9140759E0,4.931797E0,1.1977423E0,4.636196E2,9.117013E0,1.4537022E1,7.701144E0,3.884822E1,1.9327061E0,1.166734E0,8.615985E0,8.190421E0,1.5429712E1,6.294283E0,2.82273E0,1.1923999E1,2.613023E0,6.030376E0,1.6707684E0,3.4847797E1,4.00042E0,7.4263096E0,1.1896756E0,4.277949E0,3.9124725E0,6.7489095E0,8.680803E0,4.1753645E0,2.1189182E0,1.4024413E0,1.4202888E0,1.8921486E0,1.003185E1,1.1749134E0,1.4381098E0,3.1373353E0,2.8930407E0,3.5705311E0,3.8557782E0,2.119766E0,2.1581826E0,2.190004E0,1.7224683E0,3.887982E0,2.8609276E0,3.138302E0,5.542501E0,1.6863126E0,1.4510229E0,1.6732998E0,1.2197409E0,2.3998063E0,1.1707249E0,1.6846218E0,2.1711564E0,2.44378E0,1.4442021E0,3.3773742E0,2.1651268E0],"tree_param":{"num_deleted":"0","num_feature":"39","num_nodes":"97","size_leaf_vector":"1"}},{"base_weights":[-2.878712E-3,-1.3894342E0,1.1985829E-1,-1.4418478E0,8.920468E-2,-1.4439642E0,8.929993E-2,-1.1827772E-1,1.2305952E0,-1.4514036E0,-7.2121364E-1,7.091924E-1,1.20149866E-1,-1.4608134E0,-1.1400905E0,-1.1233629E-1,8.149966E-1,1.6460136E-1,1.1837387E-1,-1.1785059E-1,-1.3617713E0,-1.097729E-1,-2.8562027E-1,-7.343787E-2,1.2553799E0,-3.8416076E-1,1.00407444E-1,-1.3947494E0,1.0307714E0,-6.893201E-1,1.15134425E-1,2.6799936E-2,1.0975909E-1,-6.200715E-1,7.5855866E-2,-1.17554106E-1,-1.166346E0,-3.0476915E-2,1.1684901E-1,-8.8107485E-1,8.392011E-2,-7.042416E-2,3.1581186E-2,1.19084194E-1,-1.2205343E0,-7.951526E-2,-3.2333404E-1,-9.9206924E-2,1.527616E-2,-4.06992E-3,-3.6978982E-2],"categories":[],"categories_nodes":[],"categories_segments":[],"categories_sizes":[],"default_left":[0,0,0,0,0,0,0,0,0,0,0,0,0,0,0,0,0,0,0,0,0,0,0,0,0,0,0,0,0,0,0,0,0,0,0,0,0,0,0,0,0,0,0,0,0,0,0,0,0,0,0],"id":5,"left_children":[1,3,-1,5,7,9,-1,-1,11,13,15,17,-1,19,21,-1,23,25,-1,-1,27,-1,29,-1,31,33,-1,35,37,39,-1,-1,-1,41,-1,-1,43,-1,-1,45,-1,-1,-1,-1,47,-1,49,-1,-1,-1,-1],"loss_changes":[1.464149E4,2.835337E2,0E0,2.0732422E1,2.2750342E2,1.792871E1,0E0,0E0,9.335762E0,8.56543E0,4.0956207E1,1.111064E1,0E0,2.1254883E0,2.0828766E1,0E0,1.0547533E1,1.0642784E1,0E0,0E0,3.2037292E1,0E0,1.7786644E1,0E0,6.392288E-1,4.378859E0,0E0,4.8182983E0,4.1051E0,7.664613E0,0E0,0E0,0E0,3.2131953E0,0E0,0E0,1.608966E1,0E0,0E0,8.592949E-1,0E0,0E0,0E0,0E0,2.9351654E0,0E0,1.5204284E-1,0E0,0E0,0E0,0E0],"parents":[2147483647,0,0,1,1,3,3,4,4,5,5,8,8,9,9,10,10,11,11,13,13,14,14,16,16,17,17,20,20,22,22,24,24,25,25,27,27,28,28,29,29,33,33,36,36,39,39,44,44,46,46],"right_children":[2,4,-1,6,8,10,-1,-1,12,14,16,18,-1,20,22,-1,24,26,-1,-1,28,-1,30,-1,32,34,-1,36,38,40,-1,-1,-1,42,-1,-1,44,-1,-1,46,-1,-1,-1,-1,48,-1,50,-1,-1,-1,-1],"split_conditions":[3E0,3.4E1,1.1985829E-1,3E0,2E0,1E0,8.929993E-2,-1.1827772E-1,1E0,3.1E1,2.6E1,1E0,1.20149866E-1,2E0,2E0,-1.1233629E-1,2E0,1E0,1.1837387E-1,-1.1785059E-1,1E0,-1.097729E-1,1E0,-7.343787E-2,1E0,3E0,1.00407444E-1,2.5E1,2.6E1,1E0,1.15134425E-1,2.6799936E-2,1.0975909E-1,4E1,7.5855866E-2,-1.17554106E-1,1.8E1,-3.0476915E-2,1.1684901E-1,1E0,8.392011E-2,-7.042416E-2,3.1581186E-2,1.19084194E-1,3.7383177E0,-7.951526E-2,2.5E1,-9.9206924E-2,1.527616E-2,-4.06992E-3,-3.6978982E-2],"split_indices":[12,0,0,2,2,23,0,0,3,0,0,16,0,2,2,0,2,4,0,0,16,0,16,0,3,2,0,0,0,4,0,0,0,0,0,0,1,0,0,3,0,0,0,0,24,0,1,0,0,0,0],"split_type":[0,0,0,0,0,0,0,0,0,0,0,0,0,0,0,0,0,0,0,0,0,0,0,0,0,0,0,0,0,0,0,0,0,0,0,0,0,0,0,0,0,0,0,0,0,0,0,0,0,0,0],"sum_hessian":[7.0325493E3,3.655802E3,3.3767473E3,3.5306743E3,1.2512761E2,3.5281907E3,2.4835298E0,5.259464E1,7.253297E1,3.4912466E3,3.69443E1,2.6059763E1,4.6473206E1,3.3852322E3,1.0601425E2,2.5633657E1,1.1310644E1,1.5979075E1,1.0080688E1,2.9984111E3,3.8682098E2,8.2894554E1,2.3119698E1,2.0721107E0,9.238533E0,1.1060752E1,4.918323E0,3.8197302E2,4.847956E0,1.9221209E1,3.89849E0,1.474366E0,7.7641673E0,9.851099E0,1.2096531E0,2.8376282E2,9.821021E1,1.1581025E0,3.6898537E0,1.7755716E1,1.465492E0,7.9460826E0,1.9050162E0,1.4349802E0,9.677523E1,1.4116899E1,3.6388173E0,9.557277E1,1.2024636E0,1.690041E0,1.9487764E0],"tree_param":{"num_deleted":"0","num_feature":"39","num_nodes":"51","size_leaf_vector":"1"}},{"base_weights":[-4.305049E-3,-1.3310012E0,1.1535731E-1,-1.3832746E0,1.2616453E-1,-1.3917786E0,7.420481E-1,-1.3513306E0,1.1878729E0,-1.3938602E0,9.870788E-2,-8.255983E-2,1.1275593E0,-1.3786968E0,-1.0145025E-2,6.834589E-1,1.15057915E-1,-1.1312748E-1,-1.2413249E0,3.867284E-2,9.927223E-2,-1.1262734E-1,-2.707594E-2,1.6123211E-1,1.1315479E-1,-1.2953085E0,1.2962865E0,-3.486297E-1,9.582591E-2,-1.13042876E-1,-1.0038058E0,2.854242E-4,1.1927574E-1,-5.8185375E-1,7.3092945E-2,1.29483E-1,-1.0681481E0,-7.086973E-2,5.0989047E-2,-1.1268482E0,4.1510203E-1,-9.320195E-2,1.1494259E-2,-7.414458E-3,8.035715E-2],"categories":[],"categories_nodes":[],"categories_segments":[],"categories_sizes":[],"default_left":[0,0,0,0,0,0,0,0,0,0,0,0,0,0,0,0,0,0,0,0,0,0,0,0,0,0,0,0,0,0,0,0,0,0,0,0,0,0,0,0,0,0,0,0,0],"id":6,"left_children":[1,3,-1,5,7,9,11,13,15,17,-1,-1,19,21,-1,23,-1,-1,25,-1,-1,-1,-1,27,-1,29,31,33,-1,-1,35,-1,-1,37,-1,-1,39,-1,-1,41,43,-1,-1,-1,-1],"loss_changes":[1.2889216E4,2.6704443E2,0E0,6.2164062E1,1.9337244E2,2.0134766E1,1.0828654E1,1.5537186E0,8.066956E0,8.63623E0,0E0,0E0,2.82609E-1,1.0501556E0,0E0,9.57356E0,0E0,0E0,5.6816956E1,0E0,0E0,0E0,0E0,8.929592E0,0E0,1.2123962E1,2.2302437E0,3.9378004E0,0E0,0E0,2.1465881E1,0E0,0E0,4.4108663E0,0E0,0E0,1.0460983E1,0E0,0E0,5.5356293E0,1.6194177E0,0E0,0E0,0E0,0E0],"parents":[2147483647,0,0,1,1,3,3,4,4,5,5,6,6,7,7,8,8,9,9,12,12,13,13,15,15,18,18,23,23,25,25,26,26,27,27,30,30,33,33,36,36,39,39,40,40],"right_children":[2,4,-1,6,8,10,12,14,16,18,-1,-1,20,22,-1,24,-1,-1,26,-1,-1,-1,-1,28,-1,30,32,34,-1,-1,36,-1,-1,38,-1,-1,40,-1,-1,42,44,-1,-1,-1,-1],"split_conditions":[3E0,3.4E1,1.1535731E-1,1E0,1E0,2E0,2E1,1E0,1E0,1E0,9.870788E-2,-8.255983E-2,1E0,1.0169492E1,-1.0145025E-2,1E0,1.15057915E-1,-1.1312748E-1,1E0,3.867284E-2,9.927223E-2,-1.1262734E-1,-2.707594E-2,1E0,1.1315479E-1,2.5E1,1.9E1,2E0,9.582591E-2,-1.13042876E-1,1.8E1,2.854242E-4,1.1927574E-1,4E1,7.3092945E-2,1.29483E-1,1E0,-7.086973E-2,5.0989047E-2,2E0,3.1E1,-9.320195E-2,1.1494259E-2,-7.414458E-3,8.035715E-2],"split_indices":[12,0,0,15,17,17,0,5,3,17,0,0,3,24,0,16,0,0,16,0,0,0,0,4,0,0,1,17,0,0,1,0,0,0,0,0,4,0,0,3,0,0,0,0,0],"split_type":[0,0,0,0,0,0,0,0,0,0,0,0,0,0,0,0,0,0,0,0,0,0,0,0,0,0,0,0,0,0,0,0,0,0,0,0,0,0,0,0,0,0,0,0,0],"sum_hessian":[6.7154614E3,3.5025637E3,3.2128977E3,3.3813154E3,1.2124836E2,3.3681833E3,1.31319E1,5.0583096E1,7.066526E1,3.365984E3,2.1995516E0,2.0448675E0,1.1087032E1,4.935419E1,1.2289017E0,2.4676466E1,4.5988796E1,2.964486E3,4.014977E2,2.4467554E0,8.640277E0,4.7665363E1,1.6888287E0,1.5105386E1,9.57108E0,3.936138E2,7.8839345E0,1.0570043E1,4.535343E0,2.7763818E2,1.1597559E2,1.1650815E0,6.718853E0,9.376641E0,1.1934013E0,2.198975E0,1.1377662E2,7.724026E0,1.6526154E0,1.0967643E2,4.100188E0,1.0655767E2,3.118761E0,2.6552348E0,1.4449527E0],"tree_param":{"num_deleted":"0","num_feature":"39","num_nodes":"45","size_leaf_vector":"1"}},{"base_weights":[-3.92559E-4,-7.039004E-1,1.221674E0,-9.5697665E-1,4.5749483E-1,5.1007867E-1,1.3642666E0,-1.3334037E0,-6.8086255E-1,1.3435773E0,-7.596806E-1,-2.1102704E-1,9.5741004E-1,1.1313874E0,1.1055835E-1,-1.0868331E-1,-9.7296745E-2,-9.0623707E-1,1.341956E-1,1.3543847E0,-7.042699E-2,-1.2331636E0,8.335897E-1,-3.2065424E-1,1.00925654E-1,5.9673643E-1,1.3165085E0,8.430127E-1,1.1108743E-1,-4.9050558E-1,-1.2221904E0,-1.2139286E0,3.7981975E-1,1.11039124E-1,8.5597026E-1,-1.0938711E-1,-9.7060007E-1,-1.0289309E0,1.2909281E0,-4.8594865E-1,6.600095E-1,3.7840015E-1,1.0735636E-1,1.3386743E0,-1.0303337E-2,6.034304E-1,1.08095996E-1,6.856094E-2,-1.0073749E0,-1.24592E0,-3.110509E-1,-1.0074187E-1,6.09286E-2,1.7989948E-1,1.3666505E0,-9.1720715E-2,9.999946E-2,-1.0091308E0,-1.4553654E-1,-9.365557E-2,-3.8607975E-3,4.373455E-1,1.08204775E-1,-7.0383245E-1,1.3524397E-1,1.02975525E-1,-3.9470637E-1,1.0028074E-1,9.393378E-1,1.0898568E-1,8.142308E-1,4.9112812E-1,1.0319063E-1,-2.172913E-1,6.9566315E-1,-1.0488955E0,8.3506964E-2,-1.2510183E0,6.880946E-2,-8.296923E-2,1.872241E-1,7.472919E-1,-1.06704436E-1,8.708843E-3,1.11412644E-1,-7.789503E-1,-1.175371E0,6.0131955E-1,-7.247616E-2,-6.1216578E-2,7.235165E-2,-4.498064E-1,-8.4355307E-1,-8.098725E-1,5.4557806E-1,-6.6516775E-1,4.4712394E-2,8.581095E-3,7.260003E-2,1.0576117E-1,-9.08938E-2,8.3159104E-2,-3.8340038E-3,2.9707456E-1,6.847541E-2,-1.1022998E0,2.7169725E-1,7.914372E-2,-1.0333883E-1,-1.0562842E0,5.595781E-2,-1.2561351E0,6.879675E-2,-1.265879E-1,8.540146E-2,6.340963E-2,-4.732401E-2,-5.773958E-1,1.2624784E-1,-1.0221734E0,-3.9169428E-1,-9.9352464E-2,-7.0875645E-1,2.2693952E-3,7.069872E-2,7.428857E-3,-1.7130898E-2,-5.2918816E-1,6.523539E-2,-9.5908874E-1,-4.3378003E-2,-2.5074396E-2,-8.373564E-2,5.995877E-1,-1.2049387E-2,-8.417102E-2,7.115712E-2,-4.4771273E-2,7.925025E-2,3.58402E-2,4.9750838E-1,-8.921349E-2,-6.767318E-3,2.2420282E-2,-2.6321243E-2,-1.0757818E0,-3.1689695E-1,-1.2840703E0,-1.0164534E0,-2.282235E-2,2.656176E-2,-5.8499143E-2,4.45644E-2,1.7454268E-1,-8.6124964E-2,-2.314029E-1,-8.849629E-2,8.637523E-1,-9.37149E-1,-7.867265E-2,-4.2200273E-1,-4.472499E-2,5.3051333E-3,-7.9159275E-2,-3.530056E-1,5.244073E-1,7.3234536E-2,-4.3898534E-2,4.9259376E-2,-8.8167444E-2,7.113073E-2,-5.4205754E-3,5.6086496E-2,5.1621374E-2,2.8331405E-1,-9.4152495E-2,-7.617358E-2,-9.757663E-3,-5.4317378E-2,-1.0517059E-1,-9.368335E-2,-8.4301524E-2,-2.3578893E-2,-1.9801984E-2,2.3203705E-2,1.0095787E-2,8.182995E-2,-6.2384676E-2,3.640342E-2,8.5023604E-2,2.4584495E-3,-8.272028E-2,-1.3159505E-2,8.090122E-3,-5.00118E-2,-3.503111E-2,-1.1004725E-2,3.5853308E-2,7.417675E-2,-1.3499141E-2,3.476318E-2,1.0358616E-2,5.82528E-2],"categories":[],"categories_nodes":[],"categories_segments":[],"categories_sizes":[],"default_left":[0,0,0,0,0,0,0,0,0,0,0,0,0,0,0,0,0,0,0,0,0,0,0,0,0,0,0,0,0,0,0,0,0,0,0,0,0,0,0,0,0,0,0,0,0,0,0,0,0,0,0,0,0,0,0,0,0,0,0,0,0,0,0,0,0,0,0,0,0,0,0,0,0,0,0,0,0,0,0,0,0,0,0,0,0,0,0,0,0,0,0,0,0,0,0,0,0,0,0,0,0,0,0,0,0,0,0,0,0,0,0,0,0,0,0,0,0,0,0,0,0,0,0,0,0,0,0,0,0,0,0,0,0,0,0,0,0,0,0,0,0,0,0,0,0,0,0,0,0,0,0,0,0,0,0,0,0,0,0,0,0,0,0,0,0,0,0,0,0,0,0,0,0,0,0,0,0,0,0,0,0,0,0,0,0,0,0,0,0,0,0,0,0,0,0,0,0,0,0,0,0,0,0],"id":7,"left_children":[1,3,5,7,9,11,13,15,17,19,21,23,25,27,-1,-1,-1,29,31,33,-1,35,37,39,-1,41,43,45,-1,47,49,51,53,-1,55,-1,57,59,61,63,65,67,-1,69,-1,71,-1,73,75,77,79,-1,-1,81,83,-1,-1,85,87,-1,-1,89,-1,91,93,-1,95,97,99,-1,101,103,-1,105,107,109,-1,111,-1,-1,113,115,117,-1,-1,119,121,123,-1,125,-1,127,129,131,133,135,-1,137,-1,-1,-1,-1,-1,139,-1,141,143,-1,-1,145,-1,147,-1,149,-1,-1,-1,151,153,155,157,-1,159,-1,-1,-1,-1,161,-1,163,-1,-1,-1,165,-1,-1,167,169,-1,171,173,-1,-1,-1,-1,175,177,179,181,-1,-1,-1,183,185,-1,187,-1,189,191,-1,193,-1,-1,-1,195,197,-1,-1,-1,199,-1,-1,-1,-1,201,-1,-1,-1,-1,-1,-1,-1,-1,-1,-1,-1,-1,-1,-1,-1,-1,-1,-1,-1,-1,-1,-1,-1,-1,-1,-1,-1,-1],"loss_changes":[5.5288867E3,1.2000474E3,2.3770752E2,3.4743384E2,7.893271E2,1.27235954E2,6.5080566E0,2.5222168E0,3.5563922E2,1.1367432E1,2.3380664E2,2.4876656E1,3.0716232E1,9.496994E0,0E0,0E0,0E0,1.9856653E2,1.3957193E2,5.874878E0,0E0,7.0673523E0,6.205142E1,2.3319836E1,0E0,1.9533829E1,4.050354E0,7.749756E0,0E0,1.8975235E2,1.8224854E1,6.780365E0,7.001274E1,0E0,2.450799E1,0E0,2.5245209E0,1.9746647E0,2.4427338E0,1.6606836E1,1.432653E1,1.4985058E1,0E0,3.7036133E-1,0E0,3.1914158E0,0E0,5.6846416E1,3.0149658E1,1.0081177E1,8.58152E0,0E0,0E0,4.842283E1,1.8059158E0,0E0,0E0,2.1500092E0,3.337648E0,0E0,0E0,1.3039098E0,0E0,2.8318367E0,1.3052447E1,0E0,2.5782497E0,4.8582582E0,2.6853777E1,0E0,1.5322089E0,2.8786945E0,0E0,9.4645325E1,5.920639E1,5.0648804E0,0E0,1.0121704E1,0E0,0E0,4.167103E0,6.531185E0,2.18259E1,0E0,0E0,3.043272E0,5.029831E-1,4.7363532E-1,0E0,1.0305864E-1,0E0,3.8713202E0,1.472332E0,8.765931E-1,9.653187E-1,2.1040108E0,0E0,3.1902027E0,0E0,0E0,0E0,0E0,0E0,1.5749729E0,0E0,9.2440796E-1,8.180866E-1,0E0,0E0,4.4721985E0,0E0,4.288452E0,0E0,9.428535E-1,0E0,0E0,0E0,6.3342743E0,7.9445596E0,1.1949482E0,1.1578136E1,0E0,2.0634556E-1,0E0,0E0,0E0,0E0,6.21171E-1,0E0,3.889923E-1,0E0,0E0,0E0,3.7497044E-2,0E0,0E0,1.4822631E0,2.4251416E0,0E0,1.0319562E0,3.5951138E-1,0E0,0E0,0E0,0E0,2.9403381E0,6.226338E-1,1.0321045E0,2.1672516E0,0E0,0E0,0E0,1.075812E0,5.1712303E0,0E0,1.6204523E0,0E0,8.43348E-1,6.8619347E-1,0E0,6.595419E-1,0E0,0E0,0E0,3.1947494E-3,1.970191E-1,0E0,0E0,0E0,2.4420278E0,0E0,0E0,0E0,0E0,5.064001E-1,0E0,0E0,0E0,0E0,0E0,0E0,0E0,0E0,0E0,0E0,0E0,0E0,0E0,0E0,0E0,0E0,0E0,0E0,0E0,0E0,0E0,0E0,0E0,0E0,0E0,0E0,0E0,0E0],"parents":[2147483647,0,0,1,1,2,2,3,3,4,4,5,5,6,6,7,7,8,8,9,9,10,10,11,11,12,12,13,13,17,17,18,18,19,19,21,21,22,22,23,23,25,25,26,26,27,27,29,29,30,30,31,31,32,32,34,34,36,36,37,37,38,38,39,39,40,40,41,41,43,43,45,45,47,47,48,48,49,49,50,50,53,53,54,54,57,57,58,58,61,61,63,63,64,64,66,66,67,67,68,68,70,70,71,71,73,73,74,74,75,75,77,77,80,80,81,81,82,82,85,85,86,86,87,87,89,89,91,91,92,92,93,93,94,94,95,95,97,97,103,103,105,105,106,106,109,109,111,111,113,113,117,117,118,118,119,119,120,120,122,122,127,127,129,129,133,133,136,136,137,137,139,139,140,140,145,145,146,146,147,147,148,148,152,152,153,153,155,155,157,157,158,158,160,160,164,164,165,165,169,169,174,174],"right_children":[2,4,6,8,10,12,14,16,18,20,22,24,26,28,-1,-1,-1,30,32,34,-1,36,38,40,-1,42,44,46,-1,48,50,52,54,-1,56,-1,58,60,62,64,66,68,-1,70,-1,72,-1,74,76,78,80,-1,-1,82,84,-1,-1,86,88,-1,-1,90,-1,92,94,-1,96,98,100,-1,102,104,-1,106,108,110,-1,112,-1,-1,114,116,118,-1,-1,120,122,124,-1,126,-1,128,130,132,134,136,-1,138,-1,-1,-1,-1,-1,140,-1,142,144,-1,-1,146,-1,148,-1,150,-1,-1,-1,152,154,156,158,-1,160,-1,-1,-1,-1,162,-1,164,-1,-1,-1,166,-1,-1,168,170,-1,172,174,-1,-1,-1,-1,176,178,180,182,-1,-1,-1,184,186,-1,188,-1,190,192,-1,194,-1,-1,-1,196,198,-1,-1,-1,200,-1,-1,-1,-1,202,-1,-1,-1,-1,-1,-1,-1,-1,-1,-1,-1,-1,-1,-1,-1,-1,-1,-1,-1,-1,-1,-1,-1,-1,-1,-1,-1,-1],"split_conditions":[3.1E1,1E0,2E0,2.1E1,5.714286E0,3.5E1,3.4E1,2E1,2E0,2E0,2E0,1E0,4.4E1,1E0,1.1055835E-1,-1.0868331E-1,-9.7296745E-2,1E0,2.3E1,2.4390244E0,-7.042699E-2,2E1,2.3E1,1E0,1.00925654E-1,1E0,4E0,1E0,1.1108743E-1,2.3E1,2E0,1E0,1E0,1.11039124E-1,2E0,-1.0938711E-1,3.1578947E1,2.2E1,2.5E1,1E0,2.4390244E0,1E0,1.0735636E-1,2.4390244E0,-1.0303337E-2,1E0,1.08095996E-1,1E0,1E0,1E0,2.7E1,-1.0074187E-1,6.09286E-2,2.4E1,2.4E1,-9.1720715E-2,9.999946E-2,1E0,4.117647E1,-9.365557E-2,-3.8607975E-3,1.8918919E1,1.08204775E-1,1E0,1E0,1.02975525E-1,1.7142857E1,1E0,2E0,1.0898568E-1,1E0,1E0,1.0319063E-1,2.2E1,2.2E1,1E0,8.3506964E-2,1E0,6.880946E-2,-8.296923E-2,1E0,1E0,2.6E1,8.708843E-3,1.11412644E-1,1.6129032E1,2.6E1,2.3E1,-7.247616E-2,2.4E1,7.235165E-2,1E0,3.3E1,3.2E1,3E0,1E0,4.4712394E-2,1E0,7.260003E-2,1.0576117E-1,-9.08938E-2,8.3159104E-2,-3.8340038E-3,3.2E1,6.847541E-2,1E0,1E0,7.914372E-2,-1.0333883E-1,1E0,5.595781E-2,1E0,6.879675E-2,3E1,8.540146E-2,6.340963E-2,-4.732401E-2,1E0,1E0,6.060606E0,1.7857143E1,-9.9352464E-2,1.0714286E1,2.2693952E-3,7.069872E-2,7.428857E-3,-1.7130898E-2,1E0,6.523539E-2,1E0,-4.3378003E-2,-2.5074396E-2,-8.373564E-2,1E0,-1.2049387E-2,-8.417102E-2,1E0,1E0,7.925025E-2,1E0,3.3E1,-8.921349E-2,-6.767318E-3,2.2420282E-2,-2.6321243E-2,2.6E1,1E0,2.7E1,3E1,-2.282235E-2,2.656176E-2,-5.8499143E-2,2.5E1,1E0,-8.6124964E-2,1E0,-8.849629E-2,2.4E1,2.5E1,-7.867265E-2,1.4814815E1,-4.472499E-2,5.3051333E-3,-7.9159275E-2,3.2E1,1E0,7.3234536E-2,-4.3898534E-2,4.9259376E-2,4.1E1,7.113073E-2,-5.4205754E-3,5.6086496E-2,5.1621374E-2,3E0,-9.4152495E-2,-7.617358E-2,-9.757663E-3,-5.4317378E-2,-1.0517059E-1,-9.368335E-2,-8.4301524E-2,-2.3578893E-2,-1.9801984E-2,2.3203705E-2,1.0095787E-2,8.182995E-2,-6.2384676E-2,3.640342E-2,8.5023604E-2,2.4584495E-3,-8.272028E-2,-1.3159505E-2,8.090122E-3,-5.00118E-2,-3.503111E-2,-1.1004725E-2,3.5853308E-2,7.417675E-2,-1.3499141E-2,3.476318E-2,1.0358616E-2,5.82528E-2],"split_indices":[0,4,2,0,25,0,0,0,2,3,2,20,0,16,0,0,0,16,0,25,0,0,0,4,0,20,3,4,0,0,3,23,16,0,2,0,25,0,0,3,25,4,0,25,0,5,0,3,14,20,0,0,0,0,0,0,0,16,25,0,0,25,0,16,16,0,25,5,3,0,3,3,0,0,0,6,0,7,0,0,23,3,0,0,0,25,0,0,0,0,0,14,0,0,3,16,0,23,0,0,0,0,0,0,0,5,5,0,0,5,0,3,0,0,0,0,0,3,14,25,25,0,25,0,0,0,0,5,0,14,0,0,0,15,0,0,3,7,0,23,0,0,0,0,0,0,3,0,0,0,0,0,0,23,0,3,0,0,0,0,25,0,0,0,0,5,0,0,0,0,0,0,0,0,2,0,0,0,0,0,0,0,0,0,0,0,0,0,0,0,0,0,0,0,0,0,0,0,0,0,0,0,0],"split_type":[0,0,0,0,0,0,0,0,0,0,0,0,0,0,0,0,0,0,0,0,0,0,0,0,0,0,0,0,0,0,0,0,0,0,0,0,0,0,0,0,0,0,0,0,0,0,0,0,0,0,0,0,0,0,0,0,0,0,0,0,0,0,0,0,0,0,0,0,0,0,0,0,0,0,0,0,0,0,0,0,0,0,0,0,0,0,0,0,0,0,0,0,0,0,0,0,0,0,0,0,0,0,0,0,0,0,0,0,0,0,0,0,0,0,0,0,0,0,0,0,0,0,0,0,0,0,0,0,0,0,0,0,0,0,0,0,0,0,0,0,0,0,0,0,0,0,0,0,0,0,0,0,0,0,0,0,0,0,0,0,0,0,0,0,0,0,0,0,0,0,0,0,0,0,0,0,0,0,0,0,0,0,0,0,0,0,0,0,0,0,0,0,0,0,0,0,0,0,0,0,0,0,0],"sum_hessian":[6.428931E3,4.0803926E3,2.3485383E3,3.350476E3,7.299165E2,3.9281427E2,1.9557241E3,1.4160891E3,1.9343871E3,4.2234955E2,3.0756693E2,1.5058957E2,2.422247E2,1.4282323E2,1.8129009E3,1.1572682E3,2.5882098E2,1.5152799E3,4.1910712E2,4.206961E2,1.6534348E0,2.372791E2,7.0287834E1,1.4088376E2,9.705807E0,1.2217529E2,1.200494E2,6.934844E1,7.3474785E1,6.5542456E2,8.5985535E2,6.398408E1,3.5512302E2,3.9245123E2,2.8244865E1,1.5424774E2,8.303136E1,1.3610196E1,5.6677635E1,1.2099422E2,1.9889544E1,9.565715E1,2.6518148E1,1.1830875E2,1.7406555E0,4.8616062E1,2.0732382E1,3.152764E2,3.401482E2,8.376718E2,2.2183567E1,6.2902824E1,1.0812538E0,2.9628207E2,5.8840946E1,4.32991E0,2.3914955E1,7.911363E1,3.9177287E0,1.1721929E1,1.888268E0,4.3619366E0,5.23157E1,8.947704E1,3.1517172E1,1.2334462E1,7.555081E0,6.4738045E1,3.0919104E1,1.1167571E2,6.6330295E0,4.3255074E1,5.3609877E0,2.1701009E2,9.826629E1,3.3387848E2,6.2697253E0,8.3605383E2,1.6179498E0,8.588039E0,1.3595528E1,9.889377E1,1.973883E2,1.2970736E0,5.7543873E1,3.556085E1,4.3552784E1,2.0820384E0,1.8356901E0,2.5300806E0,1.831856E0,3.324807E1,5.6228973E1,9.246396E0,2.2270777E1,6.1214128E0,1.4336684E0,5.9041588E1,5.696457E0,2.6412315E1,4.5067883E0,5.0959187E0,1.5371108E0,2.9420122E1,1.3834952E1,7.6784836E1,1.4022527E2,8.605421E1,1.2212085E1,3.328676E2,1.010874E0,8.3443616E2,1.61766E0,1.0653801E1,2.9417264E0,9.604984E1,2.8439243E0,6.4858986E1,1.3252933E2,2.0835321E1,1.4725527E1,3.6663406E1,6.8893757E0,1.0507538E0,1.0312847E0,1.4559036E0,1.0741768E0,3.1832642E1,1.4154301E0,3.906698E1,1.7161997E1,3.736725E0,5.5096707E0,2.079621E1,1.4745685E0,3.7314653E0,2.3899472E0,5.6904507E1,2.1370814E0,1.3284567E1,1.6135555E1,7.5731445E1,1.0533861E0,1.3878198E2,1.4432833E0,3.2387216E2,8.995441E0,7.434311E2,9.100511E1,8.195785E0,2.4580166E0,5.1856453E1,1.3002535E1,1.2823535E2,4.2939777E0,2.3619444E0,1.8473377E1,4.2833056E0,1.0442222E1,2.278032E0,4.6113434E0,3.0370268E1,1.4623737E0,3.6598526E1,2.46845E0,1.8946669E1,1.8495395E0,1.1141366E0,1.2758107E0,5.5243095E1,1.6614112E0,1.2271659E1,1.0129081E0,8.357634E0,7.7779226E0,1.7345296E2,1.5041922E2,6.716422E0,2.279019E0,5.768292E2,1.6660187E2,8.609362E1,4.9114866E0,5.933809E0,7.0687256E0,1.2240822E2,5.827129E0,1.2373829E0,1.1245615E0,3.2345977E0,1.0487078E0,8.978495E0,1.4637268E0,1.4302986E0,3.1810448E0,1.0301229E0,1.4383272E0,1.7707647E1,1.2390217E0,4.8451763E1,6.7913327E0,6.7386985E0,1.0392239E0],"tree_param":{"num_deleted":"0","num_feature":"39","num_nodes":"203","size_leaf_vector":"1"}},{"base_weights":[-3.1053817E-3,-1.2495371E0,1.0880419E-1,-1.2976221E0,5.8645707E-2,-1.3050216E0,5.9034026E-1,-1.3211644E0,1.0952835E0,-1.3069043E0,9.148217E-2,-7.981639E-2,1.0042671E0,-1.3454204E0,-3.1918053E-2,6.2671137E-1,1.05315365E-1,-1.06084764E-1,-1.1626339E0,3.3755068E-2,1.1247962E0,-1.0885846E-1,-3.1188343E-2,1.9064999E-1,1.0305044E-1,-1.2160071E0,1.1162817E0,9.717524E-2,2.1226885E-2,-2.309445E-1,8.793794E-2,-1.06445074E-1,-9.408085E-1,-2.8802663E-2,1.1013501E-1,-4.3587056E-1,6.682353E-2,1.1512907E-1,-9.979749E-1,-6.814685E-1,4.8719376E-2,-1.0611567E0,5.84196E-1,-7.2574034E-2,-4.450004E-3,-8.77845E-2,3.168808E-2,5.904526E-3,7.832103E-2],"categories":[],"categories_nodes":[],"categories_segments":[],"categories_sizes":[],"default_left":[0,0,0,0,0,0,0,0,0,0,0,0,0,0,0,0,0,0,0,0,0,0,0,0,0,0,0,0,0,0,0,0,0,0,0,0,0,0,0,0,0,0,0,0,0,0,0,0,0],"id":8,"left_children":[1,3,-1,5,7,9,11,13,15,17,-1,-1,19,21,-1,23,-1,-1,25,-1,27,-1,-1,29,-1,31,33,-1,-1,35,-1,-1,37,-1,-1,39,-1,-1,41,43,-1,45,47,-1,-1,-1,-1,-1,-1],"loss_changes":[1.0471657E4,2.0258887E2,0E0,4.4151855E1,1.6607756E2,1.5754883E1,9.423658E0,5.778122E-1,6.0422287E0,7.001465E0,0E0,0E0,2.7369308E-1,1.7366791E-1,0E0,6.433378E0,0E0,0E0,4.6420288E1,0E0,3.1376362E-1,0E0,0E0,6.0493393E0,0E0,1.017572E1,3.955494E0,0E0,0E0,2.802724E0,0E0,0E0,1.6395638E1,0E0,0E0,2.9859672E0,0E0,0E0,1.1412628E1,1.1620722E0,0E0,5.9224854E0,8.9314604E-1,0E0,0E0,0E0,0E0,0E0,0E0],"parents":[2147483647,0,0,1,1,3,3,4,4,5,5,6,6,7,7,8,8,9,9,12,12,13,13,15,15,18,18,20,20,23,23,25,25,26,26,29,29,32,32,35,35,38,38,39,39,41,41,42,42],"right_children":[2,4,-1,6,8,10,12,14,16,18,-1,-1,20,22,-1,24,-1,-1,26,-1,28,-1,-1,30,-1,32,34,-1,-1,36,-1,-1,38,-1,-1,40,-1,-1,42,44,-1,46,48,-1,-1,-1,-1,-1,-1],"split_conditions":[3E0,3.4E1,1.0880419E-1,1E0,2E0,3E0,2.1E1,1E0,1E0,2E0,9.148217E-2,-7.981639E-2,1E0,1.0169492E1,-3.1918053E-2,1E0,1.05315365E-1,-1.06084764E-1,1E0,3.3755068E-2,1E0,-1.0885846E-1,-3.1188343E-2,1E0,1.0305044E-1,2.5E1,2.6E1,9.717524E-2,2.1226885E-2,3E0,8.793794E-2,-1.06445074E-1,1.8E1,-2.8802663E-2,1.1013501E-1,1E0,6.682353E-2,1.1512907E-1,1E0,3.8E1,4.8719376E-2,1E0,3.1E1,-7.2574034E-2,-4.450004E-3,-8.77845E-2,3.168808E-2,5.904526E-3,7.832103E-2],"split_indices":[12,0,0,15,2,2,0,5,3,2,0,0,3,24,0,16,0,0,16,0,16,0,0,4,0,0,0,0,0,2,0,0,1,0,0,5,0,0,4,0,0,5,0,0,0,0,0,0,0],"split_type":[0,0,0,0,0,0,0,0,0,0,0,0,0,0,0,0,0,0,0,0,0,0,0,0,0,0,0,0,0,0,0,0,0,0,0,0,0,0,0,0,0,0,0,0,0,0,0,0,0],"sum_hessian":[6.161123E3,3.2183975E3,2.9427253E3,3.1043005E3,1.14096985E2,3.0924888E3,1.1811889E1,4.8828995E1,6.526799E1,3.0905786E3,1.9099739E0,2.1506193E0,9.661269E0,4.71304E1,1.6985927E0,2.2157116E1,4.3110874E1,2.721097E3,3.694818E2,2.4285579E0,7.2327113E0,4.596985E1,1.1605536E0,1.4129827E1,8.027289E0,3.6148215E2,7.999663E0,6.1736646E0,1.0590472E0,1.0160837E1,3.96899E0,2.52528E2,1.0895416E2,1.1421132E0,6.8575497E0,9.018694E0,1.1421432E0,1.988672E0,1.06965485E2,7.583874E0,1.4348192E0,1.0317465E2,3.7908375E0,5.243361E0,2.3405135E0,1.0091822E2,2.2564273E0,2.1711187E0,1.6197187E0],"tree_param":{"num_deleted":"0","num_feature":"39","num_nodes":"49","size_leaf_vector":"1"}},{"base_weights":[1.8427331E-3,-1.2076193E0,1.05843864E-1,-1.2548192E0,2.6052026E-2,-1.2637341E0,6.377716E-1,-1.2553949E0,1.0306836E0,-1.2657202E0,6.8597674E-2,-7.937979E-2,1.0260007E0,-1.282753E0,-6.154936E-3,5.459911E-1,1.02175064E-1,-1.2754568E0,-9.634393E-1,4.6281084E-1,1.1330669E0,-1.0363689E-1,-3.2088414E-2,5.9576612E-2,1.0033786E-1,-1.0308936E-1,-1.1735344E0,-1.1748629E0,-2.0056233E-1,-4.3597505E-3,6.7667E-2,9.692255E-2,2.0441448E-2,-4.10179E-1,8.6017236E-2,-1.2024232E0,8.456644E-1,-9.5633484E-2,-2.4733417E-2,-4.6996143E-1,8.89305E-2,-6.2017375E-1,4.667004E-2,-1.0301884E-1,-9.6250206E-1,-2.7705243E-2,1.0007648E-1,-6.5387756E-1,7.551331E-2,-6.949E-2,3.9250407E-2,1.0859215E-1,-1.0300274E0,-7.978E-1,-1.141493E-1,1.1956783E-2,-8.26084E-3,-8.420022E-2,7.0332116E-3,-7.752677E-2,-4.1621137E-2,-3.2617528E-2,7.418582E-3],"categories":[],"categories_nodes":[],"categories_segments":[],"categories_sizes":[],"default_left":[0,0,0,0,0,0,0,0,0,0,0,0,0,0,0,0,0,0,0,0,0,0,0,0,0,0,0,0,0,0,0,0,0,0,0,0,0,0,0,0,0,0,0,0,0,0,0,0,0,0,0,0,0,0,0,0,0,0,0,0,0,0,0],"id":9,"left_children":[1,3,-1,5,7,9,11,13,15,17,-1,-1,19,21,-1,23,-1,25,27,29,31,-1,-1,33,-1,-1,35,37,39,-1,-1,-1,-1,41,-1,43,45,-1,-1,47,-1,49,-1,-1,51,-1,-1,53,-1,-1,55,-1,57,59,61,-1,-1,-1,-1,-1,-1,-1,-1],"loss_changes":[9.358322E3,1.7807031E2,0E0,5.0492676E1,1.4760341E2,1.3435547E1,1.0175781E1,1.5260391E0,6.9797134E0,7.39209E0,0E0,0E0,2.0999432E-1,3.149414E-2,0E0,7.9893503E0,0E0,2.2895508E0,1.5165909E1,7.665419E-1,3.4754848E-1,0E0,0E0,7.5628653E0,0E0,0E0,2.0578278E1,9.572525E-1,8.273754E0,0E0,0E0,0E0,0E0,2.6423233E0,0E0,5.536133E0,3.0019784E0,0E0,0E0,5.5305824E0,0E0,1.591831E0,0E0,0E0,1.5620903E1,0E0,0E0,1.2536225E0,0E0,0E0,7.132701E-2,0E0,2.323555E0,1.3755989E-1,3.3001694E-1,0E0,0E0,0E0,0E0,0E0,0E0,0E0,0E0],"parents":[2147483647,0,0,1,1,3,3,4,4,5,5,6,6,7,7,8,8,9,9,12,12,13,13,15,15,17,17,18,18,19,19,20,20,23,23,26,26,27,27,28,28,33,33,35,35,36,36,39,39,41,41,44,44,47,47,50,50,52,52,53,53,54,54],"right_children":[2,4,-1,6,8,10,12,14,16,18,-1,-1,20,22,-1,24,-1,26,28,30,32,-1,-1,34,-1,-1,36,38,40,-1,-1,-1,-1,42,-1,44,46,-1,-1,48,-1,50,-1,-1,52,-1,-1,54,-1,-1,56,-1,58,60,62,-1,-1,-1,-1,-1,-1,-1,-1],"split_conditions":[3E0,3.4E1,1.05843864E-1,1E0,2E0,3E0,2.1E1,1E0,1E0,3.1E1,6.8597674E-2,-7.937979E-2,1E0,9.433962E0,-6.154936E-3,1E0,1.02175064E-1,2E0,2E0,1E0,1E0,-1.0363689E-1,-3.2088414E-2,1E0,1.0033786E-1,-1.0308936E-1,1E0,1E0,1E0,-4.3597505E-3,6.7667E-2,9.692255E-2,2.0441448E-2,1E0,8.6017236E-2,2.5E1,1.8E1,-9.5633484E-2,-2.4733417E-2,1E0,8.89305E-2,3.8E1,4.667004E-2,-1.0301884E-1,1.8E1,-2.7705243E-2,1.0007648E-1,1E0,7.551331E-2,-6.949E-2,3.3E1,1.0859215E-1,5.263158E0,3.2E1,3.2E1,1.1956783E-2,-8.26084E-3,-8.420022E-2,7.0332116E-3,-7.752677E-2,-4.1621137E-2,-3.2617528E-2,7.418582E-3],"split_indices":[12,0,0,15,2,2,0,5,3,0,0,0,3,24,0,16,0,2,2,16,16,0,0,4,0,0,16,5,16,0,0,0,0,5,0,0,1,0,0,4,0,0,0,0,1,0,0,3,0,0,1,0,25,0,0,0,0,0,0,0,0,0,0],"split_type":[0,0,0,0,0,0,0,0,0,0,0,0,0,0,0,0,0,0,0,0,0,0,0,0,0,0,0,0,0,0,0,0,0,0,0,0,0,0,0,0,0,0,0,0,0,0,0,0,0,0,0,0,0,0,0,0,0,0,0,0,0,0,0],"sum_hessian":[5.854462E3,3.05653E3,2.797932E3,2.943881E3,1.1264885E2,2.93041E3,1.347129E1,4.9394554E1,6.3254295E1,2.9280715E3,2.3383462E0,2.2920516E0,1.1179237E1,4.8187378E1,1.2071762E0,2.2408422E1,4.084587E1,2.8335818E3,9.448968E1,2.6359992E0,8.543239E0,4.703997E1,1.1474086E0,1.3927277E1,8.481146E0,2.4992366E3,3.3434537E2,7.356253E1,2.0927149E1,1.4863229E0,1.1496762E0,7.4927015E0,1.0505372E0,9.930388E0,3.9968889E0,3.3002814E2,4.317232E0,7.1484276E1,2.078255E0,1.7895063E1,3.0320845E0,8.507972E0,1.4224167E0,2.4023634E2,8.9791794E1,1.1323775E0,3.1848545E0,1.6310884E1,1.5841781E0,5.949231E0,2.5587401E0,1.9993638E0,8.779243E1,1.249962E1,3.811265E0,1.4153968E0,1.1433433E0,8.611959E1,1.6728369E0,6.1885395E0,6.311081E0,1.1742259E0,2.637039E0],"tree_param":{"num_deleted":"0","num_feature":"39","num_nodes":"63","size_leaf_vector":"1"}},{"base_weights":[3.7757782E-4,-1.1775084E0,1.0325352E-1,-1.2161264E0,9.974861E-2,-1.2249341E0,7.406509E-1,-9.928856E-2,1.0332035E0,-1.2273923E0,7.373965E-2,-6.416139E-2,9.904869E-1,6.119242E-1,1.0075761E-1,-1.0032764E-1,-1.0382614E0,4.5145032E-1,8.761956E-2,2.3261908E-1,9.5062114E-2,-1.1111301E0,1.1553973E0,5.4114237E-2,-8.554076E-4,-3.3396506E-1,8.7306273E-1,-1.1811011E0,-4.52693E-1,-2.6654286E-2,1.07473135E-1,-4.8863718E-1,-9.320292E-3,1.9475771E-2,8.632862E-2,-1.1978599E0,8.578542E-2,-6.290353E-1,7.7883184E-2,-4.5680333E-2,-1.6328262E-2,-5.881252E-3,4.2120726E-3,-1.00421466E-1,-1.0405432E0,-6.824206E-2,7.774827E-2,-7.4838126E-1,7.2347715E-2,-8.503191E-2,2.9249378E-3,-8.286028E-2,-4.635387E-2,-2.3541305E-2,6.0808312E-2],"categories":[],"categories_nodes":[],"categories_segments":[],"categories_sizes":[],"default_left":[0,0,0,0,0,0,0,0,0,0,0,0,0,0,0,0,0,0,0,0,0,0,0,0,0,0,0,0,0,0,0,0,0,0,0,0,0,0,0,0,0,0,0,0,0,0,0,0,0,0,0,0,0,0,0],"id":10,"left_children":[1,3,-1,5,7,9,11,-1,13,15,-1,-1,17,19,-1,-1,21,23,-1,25,-1,27,29,-1,-1,31,33,35,37,-1,-1,39,41,-1,-1,43,45,47,-1,-1,-1,-1,-1,-1,49,-1,-1,51,53,-1,-1,-1,-1,-1,-1],"loss_changes":[8.407641E3,1.4276831E2,0E0,4.9288086E1,1.0866861E2,1.5880859E1,5.882618E0,0E0,4.10297E0,1.2799805E1,0E0,0E0,1.7240334E-1,4.0544286E0,0E0,0E0,5.7433258E1,3.8390607E-1,0E0,5.078142E0,0E0,1.5151825E1,3.7455053E0,0E0,0E0,3.8321567E-1,5.7646275E-1,6.624115E0,9.246109E0,0E0,0E0,5.582452E-3,1.7840004E-2,0E0,0E0,1.4322205E0,4.9410715E0,2.6623201E0,0E0,0E0,0E0,0E0,0E0,0E0,2.1316528E0,0E0,0E0,6.9700336E-1,1.596007E0,0E0,0E0,0E0,0E0,0E0,0E0],"parents":[2147483647,0,0,1,1,3,3,4,4,5,5,6,6,8,8,9,9,12,12,13,13,16,16,17,17,19,19,21,21,22,22,25,25,26,26,27,27,28,28,31,31,32,32,35,35,36,36,37,37,44,44,47,47,48,48],"right_children":[2,4,-1,6,8,10,12,-1,14,16,-1,-1,18,20,-1,-1,22,24,-1,26,-1,28,30,-1,-1,32,34,36,38,-1,-1,40,42,-1,-1,44,46,48,-1,-1,-1,-1,-1,-1,50,-1,-1,52,54,-1,-1,-1,-1,-1,-1],"split_conditions":[3E0,2.8E1,1.0325352E-1,1E0,2E0,3E0,1.3E1,-9.928856E-2,1.5625E0,2E0,7.373965E-2,-6.416139E-2,1E0,1E0,1.0075761E-1,-1.0032764E-1,1E0,2E1,8.761956E-2,1E0,9.5062114E-2,1E0,1.8E1,5.4114237E-2,-8.554076E-4,3.1E1,3E1,1.6019417E1,1.5625E0,-2.6654286E-2,1.07473135E-1,3E1,3.3E1,1.9475771E-2,8.632862E-2,1.8E1,1.4E1,2.4E1,7.7883184E-2,-4.5680333E-2,-1.6328262E-2,-5.881252E-3,4.2120726E-3,-1.00421466E-1,5.263158E0,-6.824206E-2,7.774827E-2,1.7E1,2E0,-8.503191E-2,2.9249378E-3,-8.286028E-2,-4.635387E-2,-2.3541305E-2,6.0808312E-2],"split_indices":[12,1,0,15,2,2,1,0,24,2,0,0,3,16,0,0,16,1,0,3,0,3,1,0,0,1,1,24,24,0,0,1,1,0,0,1,1,1,0,0,0,0,0,0,25,0,0,1,3,0,0,0,0,0,0],"split_type":[0,0,0,0,0,0,0,0,0,0,0,0,0,0,0,0,0,0,0,0,0,0,0,0,0,0,0,0,0,0,0,0,0,0,0,0,0,0,0,0,0,0,0,0,0,0,0,0,0,0,0,0,0,0,0],"sum_hessian":[5.5300117E3,2.890975E3,2.6390364E3,2.8061777E3,8.479728E1,2.7939758E3,1.2201981E1,3.466843E1,5.0128845E1,2.7912078E3,2.7681375E0,1.3926401E0,1.08093405E1,1.8810522E1,3.1318325E1,2.4409424E3,3.502654E2,2.6228397E0,8.1865015E0,1.2191041E1,6.619481E0,3.3948203E2,1.0783402E1,1.4522074E0,1.1706321E0,6.722425E0,5.4686165E0,3.0615384E2,3.3328194E1,1.1226938E0,9.660708E0,4.211009E0,2.511416E0,1.8862603E0,3.582356E0,3.0221057E2,3.9432616E0,3.0158312E1,3.1698809E0,2.4848795E0,1.7261293E0,1.1420698E0,1.3693461E0,2.1629892E2,8.5911644E1,1.9327527E0,2.010509E0,2.5715588E1,4.442723E0,8.41777E1,1.7339464E0,7.621795E0,1.8093794E1,3.2711473E0,1.1715757E0],"tree_param":{"num_deleted":"0","num_feature":"39","num_nodes":"55","size_leaf_vector":"1"}},{"base_weights":[3.6381835E-3,-1.1489177E0,1.0097047E-1,-1.1937613E0,2.5608303E-2,-1.2020081E0,5.230391E-1,-1.1645727E0,9.472618E-1,-1.2040166E0,6.227174E-2,-7.7165894E-2,9.33325E-1,-9.562276E-2,-1.6576631E-2,5.016674E-1,9.618349E-2,-9.7999E-2,-1.0503516E0,4.230969E-1,1.0422832E0,1.12745024E-1,9.3773544E-2,-1.102641E0,1.0884658E0,-5.8623063E-3,6.446371E-2,9.0353236E-2,1.6469356E-2,-2.7665493E-1,8.196995E-2,-9.816777E-2,-8.265717E-1,8.8051595E-3,9.84612E-2,-4.7373003E-1,6.596042E-2,1.0931146E-1,-8.907156E-1,-6.5242493E-1,3.449175E-2,-9.389823E-1,3.400889E-1,-2.1236248E-2,-6.5287024E-2,-7.8892E-2,-3.1159045E-2,-1.9351747E-2,7.070429E-2],"categories":[],"categories_nodes":[],"categories_segments":[],"categories_sizes":[],"default_left":[0,0,0,0,0,0,0,0,0,0,0,0,0,0,0,0,0,0,0,0,0,0,0,0,0,0,0,0,0,0,0,0,0,0,0,0,0,0,0,0,0,0,0,0,0,0,0,0,0],"id":11,"left_children":[1,3,-1,5,7,9,11,13,15,17,-1,-1,19,-1,-1,21,-1,-1,23,25,27,29,-1,31,33,-1,-1,-1,-1,35,-1,-1,37,-1,-1,39,-1,-1,41,43,-1,45,47,-1,-1,-1,-1,-1,-1],"loss_changes":[7.575542E3,1.4361597E2,0E0,3.7806396E1,1.12151764E2,1.133252E1,8.987478E0,1.0645638E0,5.9431686E0,7.128662E0,0E0,0E0,1.6464901E-1,0E0,0E0,5.783406E0,0E0,0E0,3.7055237E1,7.429768E-1,3.7192726E-1,5.774302E0,0E0,9.75528E0,9.998026E-1,0E0,0E0,0E0,0E0,2.9130173E0,0E0,0E0,1.5348511E1,0E0,0E0,1.9781542E0,0E0,0E0,6.1538086E0,3.6358404E-1,0E0,2.072235E0,1.6188252E0,0E0,0E0,0E0,0E0,0E0,0E0],"parents":[2147483647,0,0,1,1,3,3,4,4,5,5,6,6,7,7,8,8,9,9,12,12,15,15,18,18,19,19,20,20,21,21,23,23,24,24,29,29,32,32,35,35,38,38,39,39,41,41,42,42],"right_children":[2,4,-1,6,8,10,12,14,16,18,-1,-1,20,-1,-1,22,-1,-1,24,26,28,30,-1,32,34,-1,-1,-1,-1,36,-1,-1,38,-1,-1,40,-1,-1,42,44,-1,46,48,-1,-1,-1,-1,-1,-1],"split_conditions":[3E0,3.4E1,1.0097047E-1,1E0,2E0,3E0,2.1E1,1.0169492E1,1E0,2E0,6.227174E-2,-7.7165894E-2,1E0,-9.562276E-2,-1.6576631E-2,1E0,9.618349E-2,-9.7999E-2,1E0,1E0,1E0,1E0,9.3773544E-2,2.5E1,2.6E1,-5.8623063E-3,6.446371E-2,9.0353236E-2,1.6469356E-2,3E0,8.196995E-2,-9.816777E-2,1.8E1,8.8051595E-3,9.84612E-2,4E1,6.596042E-2,1.0931146E-1,1E0,2.8E1,3.449175E-2,3.2E1,3.1E1,-2.1236248E-2,-6.5287024E-2,-7.8892E-2,-3.1159045E-2,-1.9351747E-2,7.070429E-2],"split_indices":[12,0,0,15,2,2,0,24,19,2,0,0,19,0,0,16,0,0,16,16,16,4,0,0,0,0,0,0,0,2,0,0,1,0,0,0,0,0,4,1,0,0,0,0,0,0,0,0,0],"split_type":[0,0,0,0,0,0,0,0,0,0,0,0,0,0,0,0,0,0,0,0,0,0,0,0,0,0,0,0,0,0,0,0,0,0,0,0,0,0,0,0,0,0,0,0,0,0,0,0,0],"sum_hessian":[5.220772E3,2.7251267E3,2.4956453E3,2.6248914E3,1.00235405E2,2.612641E3,1.2250205E1,4.3630028E1,5.660538E1,2.610386E3,2.2552066E0,2.3561838E0,9.894021E0,4.2033104E1,1.5969208E0,2.1684704E1,3.4920677E1,2.290786E3,3.1960016E2,2.600332E0,7.2936893E0,1.4463405E1,7.2212996E0,3.12446E2,7.1541467E0,1.4840214E0,1.1163106E0,6.288311E0,1.0053782E0,1.0623472E1,3.8399327E0,2.1298448E2,9.946152E1,1.1335707E0,6.020576E0,9.4941E0,1.1293731E0,2.2496033E0,9.7211914E1,8.161382E0,1.3327174E0,9.37717E1,3.4402142E0,3.205085E0,4.956297E0,8.562697E1,8.1447315E0,1.9297434E0,1.5104707E0],"tree_param":{"num_deleted":"0","num_feature":"39","num_nodes":"49","size_leaf_vector":"1"}},{"base_weights":[2.5949348E-3,-1.1164726E0,9.8964505E-2,-1.1575294E0,1.5809186E-1,-1.1662189E0,5.376565E-1,-1.0990344E0,9.871013E-1,-1.1815462E0,-7.9509634E-1,-7.4790366E-2,9.1914666E-1,-1.1398994E0,-1.052479E-4,5.538611E-1,9.315533E-2,-1.1831961E0,5.1945798E-2,-1.0628026E0,-2.6121719E-2,3.8284072E-1,1.0327635E0,-9.463765E-2,-1.5806789E-2,2.0621915E-1,8.466269E-2,-9.587395E-2,-1.0666698E0,-8.651714E-2,-1.889858E-2,-3.4110984E-1,9.0705976E-2,-8.9477E-3,6.24608E-2,8.873968E-2,2.7714144E-2,-1.19389676E-1,7.601776E-2,-1.0963218E0,8.4054184E-1,-6.2154424E-1,8.242294E-2,-5.0593024E-1,3.943392E-2,-9.6309304E-2,-8.1977594E-1,8.4302025E-3,8.257968E-2,-6.535607E-2,1.0756931E-1,4.997464E-3,-5.7737213E-2,1.03585385E-1,-8.952834E-1,-1.0764351E-1,3.1085953E-2,-7.362993E-2,2.3353314E-2,1.6536018E-2,-3.2484446E-2],"categories":[],"categories_nodes":[],"categories_segments":[],"categories_sizes":[],"default_left":[0,0,0,0,0,0,0,0,0,0,0,0,0,0,0,0,0,0,0,0,0,0,0,0,0,0,0,0,0,0,0,0,0,0,0,0,0,0,0,0,0,0,0,0,0,0,0,0,0,0,0,0,0,0,0,0,0,0,0,0,0],"id":12,"left_children":[1,3,-1,5,7,9,11,13,15,17,19,-1,21,23,-1,25,-1,27,-1,29,31,33,35,-1,-1,37,-1,-1,39,-1,-1,41,-1,-1,-1,-1,-1,43,-1,45,47,49,-1,51,-1,-1,53,-1,-1,-1,55,-1,-1,-1,57,59,-1,-1,-1,-1,-1],"loss_changes":[6.826594E3,1.3581934E2,0E0,3.761792E1,8.630044E1,1.3273926E1,8.438145E0,1.4773254E0,3.181301E0,8.010498E0,2.100293E1,0E0,2.8826237E-1,1.0562057E0,0E0,2.6526418E0,0E0,2.9729004E0,0E0,9.130478E-1,1.0400257E1,7.8620726E-1,7.0794106E-2,0E0,0E0,2.7622411E0,0E0,0E0,1.709552E1,0E0,0E0,9.225222E0,0E0,0E0,0E0,0E0,0E0,2.2597437E0,0E0,7.4017334E0,5.8807015E-1,2.8171492E0,0E0,7.44243E-1,0E0,0E0,1.4269432E1,0E0,0E0,0E0,3.401266E-1,0E0,0E0,0E0,2.6478043E0,4.1940588E-1,0E0,0E0,0E0,0E0,0E0],"parents":[2147483647,0,0,1,1,3,3,4,4,5,5,6,6,7,7,8,8,9,9,10,10,12,12,13,13,15,15,17,17,19,19,20,20,21,21,22,22,25,25,28,28,31,31,37,37,39,39,40,40,41,41,43,43,46,46,50,50,54,54,55,55],"right_children":[2,4,-1,6,8,10,12,14,16,18,20,-1,22,24,-1,26,-1,28,-1,30,32,34,36,-1,-1,38,-1,-1,40,-1,-1,42,-1,-1,-1,-1,-1,44,-1,46,48,50,-1,52,-1,-1,54,-1,-1,-1,56,-1,-1,-1,58,60,-1,-1,-1,-1,-1],"split_conditions":[3E0,3.5E1,9.8964505E-2,1E0,2E0,3.1E1,2.1E1,1E0,3.8E1,3E0,2E0,-7.4790366E-2,1E0,9.433962E0,-1.052479E-4,1E0,9.315533E-2,2E0,5.1945798E-2,1E0,1E0,1E0,1E0,-9.463765E-2,-1.5806789E-2,1E0,8.466269E-2,-9.587395E-2,1E0,-8.651714E-2,-1.889858E-2,1E0,9.0705976E-2,-8.9477E-3,6.24608E-2,8.873968E-2,2.7714144E-2,1E0,7.601776E-2,2.5E1,2.6E1,1E0,8.242294E-2,2.9E1,3.943392E-2,-9.6309304E-2,1.8E1,8.4302025E-3,8.257968E-2,-6.535607E-2,3.3E1,4.997464E-3,-5.7737213E-2,1.03585385E-1,5.263158E0,2.5E1,3.1085953E-2,-7.362993E-2,2.3353314E-2,1.6536018E-2,-3.2484446E-2],"split_indices":[12,0,0,15,2,0,0,5,0,2,2,0,19,24,0,4,0,2,0,5,16,16,16,0,0,16,0,0,16,0,0,4,0,0,0,0,0,19,0,0,0,19,0,1,0,0,1,0,0,0,0,0,0,0,25,1,0,0,0,0,0],"split_type":[0,0,0,0,0,0,0,0,0,0,0,0,0,0,0,0,0,0,0,0,0,0,0,0,0,0,0,0,0,0,0,0,0,0,0,0,0,0,0,0,0,0,0,0,0,0,0,0,0,0,0,0,0,0,0,0,0,0,0,0,0],"sum_hessian":[4.9396313E3,2.5909612E3,2.34867E3,2.5101936E3,8.076748E1,2.4977024E3,1.2491316E1,3.196675E1,4.880073E1,2.396542E3,1.011605E2,2.2717717E0,1.0219544E1,3.0782383E1,1.1843655E0,1.5371501E1,3.342923E1,2.3947378E3,1.8041848E0,7.475399E1,2.6406506E1,2.5504105E0,7.669133E0,2.919266E1,1.5897238E0,9.93396E0,5.437541E0,2.1097375E3,2.850001E2,7.280194E1,1.9520499E0,2.132228E1,5.0842247E0,1.4574517E0,1.0929588E0,6.3457994E0,1.3233337E0,7.4938483E0,2.4401116E0,2.8105563E2,3.9444823E0,1.8156311E1,3.1659708E0,4.7003546E0,2.7934937E0,1.9994626E2,8.110937E1,1.136359E0,2.8081234E0,1.4223783E1,3.9325278E0,1.4889146E0,3.2114398E0,2.2396472E0,7.886972E1,2.5763319E0,1.356196E0,7.745746E1,1.4122659E0,1.4043447E0,1.1719872E0],"tree_param":{"num_deleted":"0","num_feature":"39","num_nodes":"61","size_leaf_vector":"1"}},{"base_weights":[2.2075516E-3,-1.0919603E0,9.716485E-2,-1.1366665E0,5.0213527E-2,-1.1449744E0,5.2222425E-1,-1.0972942E0,8.752731E-1,-1.1470085E0,5.7203386E-2,-7.065551E-2,8.79011E-1,-8.884058E-2,-2.700614E-2,3.9329243E-1,9.217363E-2,-9.360079E-2,-9.844865E-1,3.9573562E-1,7.888675E-2,-6.3806325E-2,8.97446E-2,-1.0341688E0,9.465193E-1,-5.1515857E-3,6.0574293E-2,-4.6700048E-1,7.663547E-2,-9.39873E-2,-7.4299353E-1,-2.6297988E-2,9.630415E-2,-4.7551546E-2,-2.8725786E-2,9.485405E-2,-7.9556495E-1,4.1763927E-4,-3.8957717E-3,-8.390363E-1,3.0108958E-1,-6.997059E-2,3.83516E-2,-7.846033E-3,5.965627E-2],"categories":[],"categories_nodes":[],"categories_segments":[],"categories_sizes":[],"default_left":[0,0,0,0,0,0,0,0,0,0,0,0,0,0,0,0,0,0,0,0,0,0,0,0,0,0,0,0,0,0,0,0,0,0,0,0,0,0,0,0,0,0,0,0,0],"id":13,"left_children":[1,3,-1,5,7,9,11,13,15,17,-1,-1,19,-1,-1,21,-1,-1,23,25,-1,27,-1,29,31,-1,-1,33,-1,-1,35,-1,-1,-1,37,-1,39,-1,-1,41,43,-1,-1,-1,-1],"loss_changes":[6.1617783E3,1.2472803E2,0E0,3.297998E1,8.893681E1,9.667236E0,6.991745E0,1.9729614E-2,6.835453E0,7.5808105E0,0E0,0E0,1.4724636E-1,0E0,0E0,7.2129216E0,0E0,0E0,2.9369598E1,6.39866E-1,0E0,6.265723E0,0E0,1.0964111E1,3.0024872E0,0E0,0E0,5.858965E-1,0E0,0E0,1.0763859E1,0E0,0E0,0E0,2.6154805E-3,0E0,4.7760925E0,0E0,0E0,4.714958E0,8.4581304E-1,0E0,0E0,0E0,0E0],"parents":[2147483647,0,0,1,1,3,3,4,4,5,5,6,6,7,7,8,8,9,9,12,12,15,15,18,18,19,19,21,21,23,23,24,24,27,27,30,30,34,34,36,36,39,39,40,40],"right_children":[2,4,-1,6,8,10,12,14,16,18,-1,-1,20,-1,-1,22,-1,-1,24,26,-1,28,-1,30,32,-1,-1,34,-1,-1,36,-1,-1,-1,38,-1,40,-1,-1,42,44,-1,-1,-1,-1],"split_conditions":[3E0,3.4E1,9.716485E-2,1E0,2E0,3E0,2.1E1,1.0169492E1,1E0,2E0,5.7203386E-2,-7.065551E-2,1E0,-8.884058E-2,-2.700614E-2,1E0,9.217363E-2,-9.360079E-2,1E0,1E0,7.888675E-2,1E0,8.97446E-2,2.5E1,1.8E1,-5.1515857E-3,6.0574293E-2,3.8E1,7.663547E-2,-9.39873E-2,1.8E1,-2.6297988E-2,9.630415E-2,-4.7551546E-2,4E1,9.485405E-2,2E0,4.1763927E-4,-3.8957717E-3,1E0,3.1E1,-6.997059E-2,3.83516E-2,-7.846033E-3,5.965627E-2],"split_indices":[12,0,0,15,2,2,0,24,3,2,0,0,3,0,0,16,0,0,16,16,0,4,0,0,1,0,0,0,0,0,1,0,0,0,0,0,3,0,0,5,0,0,0,0,0],"split_type":[0,0,0,0,0,0,0,0,0,0,0,0,0,0,0,0,0,0,0,0,0,0,0,0,0,0,0,0,0,0,0,0,0,0,0,0,0,0,0,0,0,0,0,0,0],"sum_hessian":[4.643078E3,2.4405461E3,2.2025322E3,2.3486228E3,9.1923416E1,2.3372275E3,1.1395252E1,3.8310513E1,5.3612907E1,2.3350571E3,2.1703644E0,2.0084317E0,9.38682E0,3.7201756E1,1.1087548E0,2.0445265E1,3.3167645E1,2.0401251E3,2.9493195E2,2.554231E0,6.832589E0,1.312349E1,7.321774E0,2.8798685E2,6.945088E0,1.4852686E0,1.0689623E0,9.799454E0,3.3240366E0,1.9213016E2,9.58567E1,1.1193327E0,5.825755E0,7.316534E0,2.48292E0,1.9716012E0,9.38851E1,1.1932675E0,1.2896526E0,9.053135E1,3.353746E0,8.8479126E1,2.0522227E0,2.1778934E0,1.1758527E0],"tree_param":{"num_deleted":"0","num_feature":"39","num_nodes":"45","size_leaf_vector":"1"}},{"base_weights":[9.467432E-4,-1.0685956E0,9.5573045E-2,-1.1141585E0,5.3275544E-2,-1.1219552E0,5.029429E-1,-1.0513394E0,8.7325495E-1,-1.1502426E0,-9.517197E-1,-7.053043E-2,9.158893E-1,-8.6843975E-2,-4.485404E-3,4.820324E-1,9.327558E-2,-1.1519078E0,-5.0836504E-1,1.5768752E-1,-9.8965895E-1,3.824621E-1,8.486703E-2,9.931143E-2,8.938111E-2,-9.28444E-2,-1.0566574E0,4.1637544E-2,-6.817172E-2,-8.740453E-2,-5.5509645E-1,-4.904471E-3,5.879287E-2,-2.335212E-1,7.385724E-1,-1.095729E0,-6.658514E-1,-7.069219E-1,8.7205686E-2,-4.1520926E-1,4.958996E-2,2.5841909E-2,7.3188394E-2,-1.1072278E0,-3.5954309E-1,-8.044963E-2,-1.8233795E-1,-7.777406E-1,4.987978E-1,-6.019294E-1,6.5156855E-2,-8.9055546E-2,-1.00697195E-2,-5.5923074E-2,1.019356E-2,9.421297E-2,-6.67578E-2,-8.174025E-1,4.062225E-2,-4.4079567E-3,6.680863E-2,-1.772619E-2,-6.1564624E-2,1.850513E-2,-1.3806625E-2,-7.143537E-2,-2.9207094E-2],"categories":[],"categories_nodes":[],"categories_segments":[],"categories_sizes":[],"default_left":[0,0,0,0,0,0,0,0,0,0,0,0,0,0,0,0,0,0,0,0,0,0,0,0,0,0,0,0,0,0,0,0,0,0,0,0,0,0,0,0,0,0,0,0,0,0,0,0,0,0,0,0,0,0,0,0,0,0,0,0,0,0,0,0,0,0,0],"id":14,"left_children":[1,3,-1,5,7,9,11,13,15,17,19,-1,21,-1,-1,23,-1,25,27,-1,29,31,-1,33,-1,-1,35,-1,-1,-1,37,-1,-1,39,41,43,45,47,-1,49,-1,-1,-1,51,53,-1,55,57,59,61,63,-1,-1,-1,-1,-1,-1,65,-1,-1,-1,-1,-1,-1,-1,-1,-1],"loss_changes":[5.5754565E3,1.1779321E2,0E0,2.8470947E1,8.320432E1,9.514893E0,7.2746468E0,1.2724648E0,5.4711113E0,1.4284668E0,3.740381E1,0E0,3.0584478E-1,0E0,0E0,5.7854323E0,0E0,3.2104492E-1,2.8013005E0,0E0,1.3536346E1,5.9719837E-1,0E0,3.6261795E0,0E0,0E0,1.8285828E0,0E0,0E0,0E0,1.6403233E1,0E0,0E0,2.0302982E0,1.2920499E-1,8.781128E-1,2.7369618E0,5.3322887E0,0E0,9.385071E-1,0E0,0E0,0E0,7.2621155E-1,7.171967E-1,0E0,8.572596E0,3.2235336E0,7.579166E-1,2.9602933E-1,1.8642221E-1,0E0,0E0,0E0,0E0,0E0,0E0,1.5128212E0,0E0,0E0,0E0,0E0,0E0,0E0,0E0,0E0,0E0],"parents":[2147483647,0,0,1,1,3,3,4,4,5,5,6,6,7,7,8,8,9,9,10,10,12,12,15,15,17,17,18,18,20,20,21,21,23,23,26,26,30,30,33,33,34,34,35,35,36,36,37,37,39,39,43,43,44,44,46,46,47,47,48,48,49,49,50,50,57,57],"right_children":[2,4,-1,6,8,10,12,14,16,18,20,-1,22,-1,-1,24,-1,26,28,-1,30,32,-1,34,-1,-1,36,-1,-1,-1,38,-1,-1,40,42,44,46,48,-1,50,-1,-1,-1,52,54,-1,56,58,60,62,64,-1,-1,-1,-1,-1,-1,66,-1,-1,-1,-1,-1,-1,-1,-1,-1],"split_conditions":[3E0,3.4E1,9.5573045E-2,1E0,2E0,2.7E1,2.1E1,1.0169492E1,1E0,6E0,2E1,-7.053043E-2,1E0,-8.6843975E-2,-4.485404E-3,1E0,9.327558E-2,1E0,3.0263159E1,1.5768752E-1,2E0,1E0,8.486703E-2,1E0,8.938111E-2,-9.28444E-2,2E0,4.1637544E-2,-6.817172E-2,-8.740453E-2,1E0,-4.904471E-3,5.879287E-2,1E0,3.7E1,1E0,2.5E1,1E0,8.7205686E-2,3.8E1,4.958996E-2,2.5841909E-2,7.3188394E-2,1.3714286E1,2.4E1,-8.044963E-2,1.8E1,1E0,3.1E1,2.8E1,3.3E1,-8.9055546E-2,-1.00697195E-2,-5.5923074E-2,1.019356E-2,9.421297E-2,-6.67578E-2,3.2E1,4.062225E-2,-4.4079567E-3,6.680863E-2,-1.772619E-2,-6.1564624E-2,1.850513E-2,-1.3806625E-2,-7.143537E-2,-2.9207094E-2],"split_indices":[12,0,0,15,2,0,0,24,4,4,1,0,3,0,0,16,0,3,24,0,2,16,0,3,0,0,2,0,0,0,16,0,0,5,0,5,0,4,0,0,0,0,0,24,0,0,1,5,0,1,1,0,0,0,0,0,0,0,0,0,0,0,0,0,0,0,0],"split_type":[0,0,0,0,0,0,0,0,0,0,0,0,0,0,0,0,0,0,0,0,0,0,0,0,0,0,0,0,0,0,0,0,0,0,0,0,0,0,0,0,0,0,0,0,0,0,0,0,0,0,0,0,0,0,0,0,0,0,0,0,0,0,0,0,0,0,0],"sum_hessian":[4.364981E3,2.302288E3,2.0626926E3,2.2124407E3,8.984759E1,2.2021296E3,1.0311097E1,3.8159634E1,5.1687958E1,1.8834137E3,3.187158E2,2.1080418E0,8.203055E0,3.680387E1,1.3557619E0,2.325336E1,2.8434595E1,1.8777476E3,5.6661673E0,3.431114E0,3.1528467E2,2.5302083E0,5.6728473E0,1.5232351E1,8.021009E0,1.7112126E3,1.6653497E2,1.2904085E0,4.3757586E0,2.5369861E2,6.1586056E1,1.4856653E0,1.0445429E0,1.0434374E1,4.797978E0,1.4975877E2,1.6776196E1,5.6904854E1,4.6812E0,9.026164E0,1.4082094E0,2.2727876E0,2.5251906E0,1.4695935E2,2.7994182E0,9.218476E0,7.55772E0,5.40832E1,2.821655E0,6.3174734E0,2.7086904E0,1.4593773E2,1.02163E0,1.3928549E0,1.4065634E0,2.1882844E0,5.369436E0,5.281777E1,1.2654307E0,1.3818823E0,1.4397726E0,2.6427834E0,3.6746902E0,1.6102837E0,1.0984067E0,4.4424408E1,8.393361E0],"tree_param":{"num_deleted":"0","num_feature":"39","num_nodes":"67","size_leaf_vector":"1"}},{"base_weights":[-1.6992404E-3,-1.0490929E0,9.415584E-2,-1.0931247E0,3.8390156E-2,-1.1009626E0,5.1468974E-1,-9.9836767E-1,8.406832E-1,-1.1034228E0,8.050161E-2,-6.664882E-2,8.87139E-1,-1.030141E0,-1.2494919E-2,4.758682E-1,9.1524065E-2,-9.0432286E-2,-9.165195E-1,1.924206E-2,8.405775E-2,-8.512697E-2,-1.36120245E-2,1.9898656E-1,7.244333E-2,-9.0577096E-2,-5.2787775E-1,4.61696E-3,6.1348133E-2,9.9778794E-2,-5.853333E-1,6.2013872E-2,-1.4482558E-1,-6.663743E-1,6.6235E-1,-4.8614353E-2,7.573024E-2,-7.09627E-1,3.2193398E-1,2.4306136E-1,7.5874716E-2,5.7436317E-2,-3.6531273E-1,-5.9671726E-2,3.4427617E-2,-7.908568E-3,6.041168E-2,3.085099E-2,-1.6704224E-3,-4.7416773E-2,1.23802945E-2],"categories":[],"categories_nodes":[],"categories_segments":[],"categories_sizes":[],"default_left":[0,0,0,0,0,0,0,0,0,0,0,0,0,0,0,0,0,0,0,0,0,0,0,0,0,0,0,0,0,0,0,0,0,0,0,0,0,0,0,0,0,0,0,0,0,0,0,0,0,0,0],"id":15,"left_children":[1,3,-1,5,7,9,11,13,15,17,-1,-1,19,21,-1,23,-1,-1,25,-1,-1,-1,-1,27,-1,-1,29,31,-1,-1,33,-1,35,37,39,-1,41,43,45,47,-1,-1,49,-1,-1,-1,-1,-1,-1,-1,-1],"loss_changes":[5.076572E3,1.0430176E2,0E0,2.6938232E1,7.211944E1,1.1907715E1,6.177279E0,8.517227E-1,4.862335E0,9.45752E0,0E0,0E0,6.962986E-1,8.782997E-1,0E0,2.6622753E0,0E0,0E0,2.1849777E1,0E0,0E0,0E0,0E0,1.7416401E0,0E0,0E0,1.0668705E1,1.5845612E0,0E0,0E0,1.0054508E1,0E0,1.2252254E0,4.065956E0,5.2518654E-1,0E0,2.7300744E0,3.8900337E0,8.8621753E-1,1.5480815E-1,0E0,0E0,7.809566E-1,0E0,0E0,0E0,0E0,0E0,0E0,0E0,0E0],"parents":[2147483647,0,0,1,1,3,3,4,4,5,5,6,6,7,7,8,8,9,9,12,12,13,13,15,15,18,18,23,23,26,26,27,27,30,30,32,32,33,33,34,34,36,36,37,37,38,38,39,39,42,42],"right_children":[2,4,-1,6,8,10,12,14,16,18,-1,-1,20,22,-1,24,-1,-1,26,-1,-1,-1,-1,28,-1,-1,30,32,-1,-1,34,-1,36,38,40,-1,42,44,46,48,-1,-1,50,-1,-1,-1,-1,-1,-1,-1,-1],"split_conditions":[3E0,3.4E1,9.415584E-2,1E0,2E0,3E0,2.1E1,1E0,1E0,2E0,8.050161E-2,-6.664882E-2,1E0,1.0169492E1,-1.2494919E-2,1E0,9.1524065E-2,-9.0432286E-2,2.5E1,1.924206E-2,8.405775E-2,-8.512697E-2,-1.36120245E-2,4E1,7.244333E-2,-9.0577096E-2,1.8E1,2.7E1,6.1348133E-2,9.9778794E-2,1E0,6.2013872E-2,3.5E1,2E0,3.1E1,-4.8614353E-2,2.9E1,1E0,3.1E1,2E1,7.5874716E-2,5.7436317E-2,3.8E1,-5.9671726E-2,3.4427617E-2,-7.908568E-3,6.041168E-2,3.085099E-2,-1.6704224E-3,-4.7416773E-2,1.23802945E-2],"split_indices":[12,0,0,15,2,2,0,5,4,2,0,0,3,24,0,3,0,0,0,0,0,0,0,0,0,0,1,1,0,0,4,0,0,3,0,0,1,5,0,1,0,0,0,0,0,0,0,0,0,0,0],"split_type":[0,0,0,0,0,0,0,0,0,0,0,0,0,0,0,0,0,0,0,0,0,0,0,0,0,0,0,0,0,0,0,0,0,0,0,0,0,0,0,0,0,0,0,0,0,0,0,0,0,0,0],"sum_hessian":[4.1102236E3,2.1763452E3,1.9338784E3,2.0916497E3,8.469552E1,2.0818164E3,9.833333E0,3.6842133E1,4.785339E1,2.0798645E3,1.9518341E0,1.8612169E0,7.972116E0,3.5287636E1,1.5544944E0,2.2892551E1,2.4960838E1,1.8130841E3,2.6678046E2,2.1083906E0,5.863725E0,3.371932E1,1.568318E0,1.48112755E1,8.081277E0,1.7033315E2,9.644732E1,1.1785462E1,3.0258129E0,2.3746192E0,9.40727E1,1.2342607E0,1.0551202E1,8.877255E1,5.3001504E0,2.838715E0,7.7124867E0,8.532053E1,3.452017E0,2.8997912E0,2.400359E0,2.8844485E0,4.828038E0,8.302469E1,2.2958436E0,2.1426272E0,1.30939E0,1.5833998E0,1.3163915E0,3.2620428E0,1.5659956E0],"tree_param":{"num_deleted":"0","num_feature":"39","num_nodes":"51","size_leaf_vector":"1"}},{"base_weights":[1.2419871E-3,-1.0274045E0,9.287665E-2,-1.0717273E0,5.595782E-2,-1.0804468E0,5.126309E-1,-1.0141908E0,8.4221196E-1,-1.1113923E0,-8.963057E-1,-6.269919E-2,8.0825526E-1,-1.0521193E0,-2.9765144E-3,4.2186418E-1,8.9159876E-2,-8.9568645E-2,-1.0187224E0,1.385858E-1,-9.3043923E-1,3.5714716E-1,7.307522E-2,-8.723726E-2,-1.2980714E-2,9.310312E-2,8.349573E-2,-1.0303005E0,-3.1285891E-3,-8.348235E-2,-4.778153E-1,-5.59236E-3,5.65636E-2,-2.0528269E-1,7.176428E-2,-1.0690681E0,-6.447266E-1,-6.42712E-1,8.624053E-2,-3.9398345E-1,6.467576E-2,-8.660362E-2,-2.6073122E-1,-7.577747E-2,-2.047804E-1,-6.985042E-1,4.7951665E-2,-5.852494E-1,3.552182E-2,-5.2342176E-2,2.100383E-2,7.887688E-2,-6.8695605E-1,-7.465809E-1,3.496333E-2,-2.2477483E-2,-5.500749E-2,-7.145519E-2,-2.3007054E-2,-3.9646517E-2,-7.1004696E-2],"categories":[],"categories_nodes":[],"categories_segments":[],"categories_sizes":[],"default_left":[0,0,0,0,0,0,0,0,0,0,0,0,0,0,0,0,0,0,0,0,0,0,0,0,0,0,0,0,0,0,0,0,0,0,0,0,0,0,0,0,0,0,0,0,0,0,0,0,0,0,0,0,0,0,0,0,0,0,0,0,0],"id":16,"left_children":[1,3,-1,5,7,9,11,13,15,17,19,-1,21,23,-1,25,-1,-1,27,-1,29,31,-1,-1,-1,33,-1,35,-1,-1,37,-1,-1,39,-1,41,43,45,-1,47,-1,-1,49,-1,51,53,-1,55,-1,-1,-1,-1,57,59,-1,-1,-1,-1,-1,-1,-1],"loss_changes":[4.6059795E3,9.8311035E1,0E0,2.771045E1,6.932167E1,1.014624E1,5.0168E0,1.2547607E0,4.9612503E0,1.3085938E-1,2.7316925E1,0E0,1.3906097E-1,9.6878433E-1,0E0,4.0455456E0,0E0,0E0,1.627945E0,0E0,1.4011322E1,5.718364E-1,0E0,0E0,0E0,3.6274612E0,0E0,1.4830933E0,0E0,0E0,1.570405E1,0E0,0E0,2.4767175E0,0E0,1.1397705E0,1.9082193E0,4.1283855E0,0E0,1.892185E0,0E0,0E0,8.838775E-1,0E0,5.1049967E0,3.1483097E0,0E0,7.845354E-2,0E0,0E0,0E0,0E0,2.4376678E-1,1.3280449E0,0E0,0E0,0E0,0E0,0E0,0E0,0E0],"parents":[2147483647,0,0,1,1,3,3,4,4,5,5,6,6,7,7,8,8,9,9,10,10,12,12,13,13,15,15,18,18,20,20,21,21,25,25,27,27,30,30,33,33,35,35,36,36,37,37,39,39,42,42,44,44,45,45,47,47,52,52,53,53],"right_children":[2,4,-1,6,8,10,12,14,16,18,20,-1,22,24,-1,26,-1,-1,28,-1,30,32,-1,-1,-1,34,-1,36,-1,-1,38,-1,-1,40,-1,42,44,46,-1,48,-1,-1,50,-1,52,54,-1,56,-1,-1,-1,-1,58,60,-1,-1,-1,-1,-1,-1,-1],"split_conditions":[3E0,3.4E1,9.287665E-2,1E0,2E0,2.7E1,2.1E1,1E0,1E0,1E0,2E1,-6.269919E-2,1E0,1.0169492E1,-2.9765144E-3,1E0,8.9159876E-2,-8.9568645E-2,1.1851851E1,1.385858E-1,2E0,1E0,7.307522E-2,-8.723726E-2,-1.2980714E-2,1.5625E0,8.349573E-2,2E0,-3.1285891E-3,-8.348235E-2,1E0,-5.59236E-3,5.65636E-2,3E0,7.176428E-2,1E0,2.5E1,3.7383177E0,8.624053E-2,4E1,6.467576E-2,-8.660362E-2,2.4E1,-7.577747E-2,1.8E1,1E0,4.7951665E-2,2.8E1,3.552182E-2,-5.2342176E-2,2.100383E-2,7.887688E-2,2.6E1,2.2E1,3.496333E-2,-2.2477483E-2,-5.500749E-2,-7.145519E-2,-2.3007054E-2,-3.9646517E-2,-7.1004696E-2],"split_indices":[12,0,0,15,2,0,0,5,3,3,1,0,3,24,0,16,0,0,24,0,2,16,0,0,0,24,0,2,0,0,16,0,0,2,0,5,0,24,0,0,0,0,0,0,1,5,0,1,0,0,0,0,0,1,0,0,0,0,0,0,0],"split_type":[0,0,0,0,0,0,0,0,0,0,0,0,0,0,0,0,0,0,0,0,0,0,0,0,0,0,0,0,0,0,0,0,0,0,0,0,0,0,0,0,0,0,0,0,0,0,0,0,0,0,0,0,0,0,0,0,0,0,0,0,0],"sum_hessian":[3.8590383E3,2.045146E3,1.8138922E3,1.9647736E3,8.037247E1,1.9543359E3,1.0437614E1,3.3917885E1,4.6454586E1,1.6688462E3,2.8548972E2,1.6315992E0,8.806015E0,3.2576298E1,1.3415843E0,1.9264294E1,2.7190292E1,1.5227606E3,1.4608559E2,3.0218923E0,2.824678E2,2.4961534E0,6.3098617E0,3.1014372E1,1.5619268E0,1.3353867E1,5.910427E0,1.4432803E2,1.7575598E0,2.2495601E2,5.7511818E1,1.4845136E0,1.0116398E0,1.0282266E1,3.0716004E0,1.295316E2,1.47964325E1,5.253111E1,4.9807096E0,9.184052E0,1.0982133E0,1.2707371E2,2.4578898E0,8.084663E0,6.711769E0,5.069181E1,1.8392965E0,7.7229815E0,1.4610713E0,1.2599616E0,1.1979283E0,1.6333542E0,5.078415E0,4.8961422E1,1.7303895E0,2.8864806E0,4.836501E0,2.5335684E0,2.5448465E0,1.923335E1,2.9728071E1],"tree_param":{"num_deleted":"0","num_feature":"39","num_nodes":"61","size_leaf_vector":"1"}},{"base_weights":[1.6216483E-3,-1.0107601E0,9.173012E-2,-1.0561891E0,9.9903956E-2,-1.0635345E0,4.2796102E-1,-9.1035837E-1,7.9693526E-1,-1.094421E0,-8.545102E-1,-6.315524E-2,6.3042164E-2,-9.5310664E-1,1.0871876E-2,3.9653477E-1,8.46586E-2,-1.1036624E0,-1.0082827E0,-9.0973175E-1,9.007015E-1,-7.929955E-2,-1.1777708E-2,6.26354E-2,8.188269E-2,-8.839161E-2,-5.531156E-1,-1.0289966E0,-7.2130054E-2,-1.0543408E0,-5.447425E-1,-6.4371685E-3,8.867684E-2,-1.7149705E-1,6.639437E-2,2.908129E-2,-6.999467E-2,-1.0510111E0,-6.278539E-1,-5.7946496E-2,4.1131902E-2,-1.0837164E0,-5.958329E-1,-6.1471397E-1,6.234103E-1,-3.4639323E-1,6.267845E-2,-8.49698E-2,-2.2912335E-1,-3.3551538E-1,-6.57047E-2,-8.700688E-2,-2.1914257E-2,-7.2067305E-2,4.5163077E-4,-6.599899E-1,3.8311772E-2,1.656215E-2,6.9941826E-2,-5.5663866E-1,4.7453504E-2,-5.037359E-2,2.2225175E-2,-5.270641E-1,-7.284175E-2,-6.986519E-1,1.1586962E-1,-5.3846173E-2,-1.1476621E-2,-5.2092846E-2,-1.2055628E-2,1.8078875E-2,-2.5286313E-2,-5.8106188E-2,-3.3296462E-2,2.4094714E-2,-8.422805E-3],"categories":[],"categories_nodes":[],"categories_segments":[],"categories_sizes":[],"default_left":[0,0,0,0,0,0,0,0,0,0,0,0,0,0,0,0,0,0,0,0,0,0,0,0,0,0,0,0,0,0,0,0,0,0,0,0,0,0,0,0,0,0,0,0,0,0,0,0,0,0,0,0,0,0,0,0,0,0,0,0,0,0,0,0,0,0,0,0,0,0,0,0,0,0,0,0,0],"id":17,"left_children":[1,3,-1,5,7,9,11,13,15,17,19,-1,-1,21,-1,23,-1,25,27,29,31,-1,-1,33,-1,-1,35,37,39,41,43,-1,-1,45,-1,-1,-1,47,49,-1,-1,51,53,55,57,59,-1,-1,61,63,-1,-1,-1,-1,-1,65,-1,-1,-1,67,-1,-1,-1,69,71,73,75,-1,-1,-1,-1,-1,-1,-1,-1,-1,-1],"loss_changes":[4.172654E3,9.6500854E1,0E0,2.0464966E1,5.4233627E1,1.0858154E1,4.897122E0,1.5379086E0,4.340397E0,1.5136719E-1,2.4056168E1,0E0,0E0,7.8772545E-1,0E0,4.031995E0,0E0,3.5498047E-1,3.1337433E0,1.1719528E1,1.682241E0,0E0,0E0,2.627204E0,0E0,0E0,1.846888E0,7.6875305E-1,2.152964E0,1.5868835E0,5.9549103E0,0E0,0E0,2.1799088E0,0E0,0E0,0E0,1.143631E0,3.4088182E-1,0E0,0E0,1.8638611E-1,2.2435308E0,3.5254364E0,2.7325773E-1,2.374979E0,0E0,0E0,8.45196E-1,2.650718E-1,0E0,0E0,0E0,0E0,0E0,1.9605408E0,0E0,0E0,0E0,3.3520627E-1,0E0,0E0,0E0,5.7287455E-2,3.406446E-1,1.6536903E-1,1.8875735E-1,0E0,0E0,0E0,0E0,0E0,0E0,0E0,0E0,0E0,0E0],"parents":[2147483647,0,0,1,1,3,3,4,4,5,5,6,6,7,7,8,8,9,9,10,10,13,13,15,15,17,17,18,18,19,19,20,20,23,23,26,26,27,27,28,28,29,29,30,30,33,33,37,37,38,38,41,41,42,42,43,43,44,44,45,45,48,48,49,49,55,55,59,59,63,63,64,64,65,65,66,66],"right_children":[2,4,-1,6,8,10,12,14,16,18,20,-1,-1,22,-1,24,-1,26,28,30,32,-1,-1,34,-1,-1,36,38,40,42,44,-1,-1,46,-1,-1,-1,48,50,-1,-1,52,54,56,58,60,-1,-1,62,64,-1,-1,-1,-1,-1,66,-1,-1,-1,68,-1,-1,-1,70,72,74,76,-1,-1,-1,-1,-1,-1,-1,-1,-1,-1],"split_conditions":[3E0,3.4E1,9.173012E-2,1E0,2E0,2E0,2.1E1,1.0169492E1,1E0,1E0,1E0,-6.315524E-2,6.3042164E-2,1E0,1.0871876E-2,1E0,8.46586E-2,6E0,1E0,2.6E1,2.6E1,-7.929955E-2,-1.1777708E-2,1E0,8.188269E-2,-8.839161E-2,3.1914894E1,3.1E1,2.5E1,1E0,1E0,-6.4371685E-3,8.867684E-2,3E0,6.639437E-2,2.908129E-2,-6.999467E-2,1.1851851E1,2E0,-5.7946496E-2,4.1131902E-2,5E0,2.5E1,1E0,1E0,1E0,6.267845E-2,-8.49698E-2,2.4E1,1E0,-6.57047E-2,-8.700688E-2,-2.1914257E-2,-7.2067305E-2,4.5163077E-4,2E0,3.8311772E-2,1.656215E-2,6.9941826E-2,3.8E1,4.7453504E-2,-5.037359E-2,2.2225175E-2,3.2E1,3.2E1,3.2E1,2.8E1,-5.3846173E-2,-1.1476621E-2,-5.2092846E-2,-1.2055628E-2,1.8078875E-2,-2.5286313E-2,-5.8106188E-2,-3.3296462E-2,2.4094714E-2,-8.422805E-3],"split_indices":[12,0,0,15,2,2,0,24,3,3,16,0,0,5,0,16,0,4,5,0,0,0,0,4,0,0,24,0,0,3,4,0,0,2,0,0,0,24,3,0,0,4,0,5,3,5,0,0,0,16,0,0,0,0,0,3,0,0,0,0,0,0,0,0,0,0,0,0,0,0,0,0,0,0,0,0,0],"split_type":[0,0,0,0,0,0,0,0,0,0,0,0,0,0,0,0,0,0,0,0,0,0,0,0,0,0,0,0,0,0,0,0,0,0,0,0,0,0,0,0,0,0,0,0,0,0,0,0,0,0,0,0,0,0,0,0,0,0,0,0,0,0,0,0,0,0,0,0,0,0,0,0,0,0,0,0,0],"sum_hessian":[3.5976538E3,1.9094701E3,1.6881838E3,1.8344841E3,7.498596E1,1.8257316E3,8.752643E0,3.048933E1,4.4496635E1,1.5869932E3,2.3873842E2,1.7256484E0,7.026994E0,2.9378025E1,1.1113049E0,1.8565395E1,2.5931238E1,1.4225612E3,1.6443202E2,2.3192346E2,6.8149595E0,2.7830946E1,1.5470791E0,1.2831865E1,5.73353E0,1.4183784E3,4.182696E0,1.6077542E2,3.656595E0,1.6475761E2,6.716584E1,1.2979481E0,5.517011E0,1.0426738E1,2.4051275E0,1.0532262E0,3.1294696E0,1.5087541E2,9.900017E0,1.6195109E0,2.037084E0,1.5355608E2,1.1201539E1,6.381702E1,3.3488162E0,9.351385E0,1.0753522E0,1.4857446E2,2.3009446E0,5.0313096E0,4.868707E0,1.5248436E2,1.0717219E0,7.102277E0,4.0992627E0,6.1660748E1,2.1562738E0,1.9452829E0,1.4035332E0,7.974492E0,1.3768935E0,1.1501069E0,1.1508375E0,2.3274987E0,2.7038112E0,5.8828754E1,2.8319952E0,5.7305517E0,2.2439404E0,1.201294E0,1.1262047E0,1.2450882E0,1.4587228E0,5.2147522E1,6.6812325E0,1.3439642E0,1.4880311E0],"tree_param":{"num_deleted":"0","num_feature":"39","num_nodes":"77","size_leaf_vector":"1"}},{"base_weights":[1.1106933E-3,-5.4313254E-1,9.7287625E-1,3.5710162E-1,-8.1047624E-1,3.953275E-1,1.0959975E0,-8.772688E-2,9.0650044E-2,-9.964358E-1,-2.3975806E-1,9.083679E-2,-5.445387E-1,8.6093974E-1,8.923661E-2,-1.0361168E0,-7.552984E-1,9.515062E-2,-5.5681497E-1,-8.5272723E-1,-2.3729278E-2,9.441331E-1,-5.189812E-2,-8.667002E-2,-1.000946E0,-9.9852073E-1,-3.1307015E-1,-9.664127E-1,3.1942677E-1,-9.3454975E-1,5.0879207E-2,-5.9031206E-1,3.0485865E-1,8.863591E-2,7.2421336E-1,1.3759598E0,-1.0551635E0,-1.0129973E0,1.8230658E-2,8.787626E-2,-5.6167346E-1,-1.0836457E0,-8.3136225E-1,5.235249E-1,-6.5385044E-1,-7.5974375E-2,-2.1868322E-2,-6.5073416E-2,-5.3959284E-2,-4.9116257E-1,4.687073E-1,-3.6667553E-1,9.8147815E-1,1.4980415E-1,8.64048E-2,-8.465172E-2,2.2048356E-2,-1.0250021E0,1.1257103E-3,-8.4001206E-2,-9.116166E-3,-8.727527E-2,-3.5653483E-2,1.13872856E-1,-9.80176E-1,-4.107908E-1,9.500288E-1,-7.9211795E-1,5.5894118E-2,3.8836412E-2,-5.014307E-1,-4.98947E-3,-6.022932E-2,7.59869E-1,-5.9477944E-2,-3.674455E-2,1.5568981E-3,9.039552E-2,3.5797188E-1,-8.490777E-2,-7.708237E-1,9.0724126E-2,-8.0155335E-2,-9.960871E-1,2.5841879E-2,-6.23557E-1,7.3833257E-1,9.6520044E-2,5.930271E-1,-9.058658E-1,2.0315008E-2,-5.25667E-2,-8.834128E-3,2.244673E-1,8.807286E-1,-6.529559E-2,2.6553687E-1,4.063084E-3,7.038298E-2,7.702108E-2,-9.51916E-1,-8.536497E-2,-7.6316345E-1,-7.242732E-2,-2.9525286E-1,2.2693522E-2,6.755784E-2,-7.245918E-2,9.498473E-2,-8.125263E-2,-2.3403982E-2,5.266062E-2,-2.3287188E-2,7.9557635E-2,4.1739872E-1,7.336621E-2,-3.8337797E-1,5.0283354E-3,-7.327746E-3,-8.01515E-2,-1.26815075E-2,1.0276769E-1,-8.483301E-2,1.2815401E-1,-7.5425915E-2,-1.3929977E-2,5.814812E-2,-5.099784E-2,4.517241E-3],"categories":[],"categories_nodes":[],"categories_segments":[],"categories_sizes":[],"default_left":[0,0,0,0,0,0,0,0,0,0,0,0,0,0,0,0,0,0,0,0,0,0,0,0,0,0,0,0,0,0,0,0,0,0,0,0,0,0,0,0,0,0,0,0,0,0,0,0,0,0,0,0,0,0,0,0,0,0,0,0,0,0,0,0,0,0,0,0,0,0,0,0,0,0,0,0,0,0,0,0,0,0,0,0,0,0,0,0,0,0,0,0,0,0,0,0,0,0,0,0,0,0,0,0,0,0,0,0,0,0,0,0,0,0,0,0,0,0,0,0,0,0,0,0,0,0,0,0,0],"id":18,"left_children":[1,3,5,7,9,11,13,-1,-1,15,17,-1,19,21,-1,23,25,-1,27,29,31,33,-1,-1,35,37,39,41,43,45,-1,47,49,-1,51,53,55,57,-1,-1,59,61,63,65,67,-1,-1,-1,69,71,73,75,77,-1,-1,-1,-1,79,-1,-1,81,-1,-1,-1,83,85,87,89,-1,-1,91,-1,-1,93,95,-1,-1,-1,97,-1,99,-1,-1,101,-1,103,105,-1,107,109,-1,-1,-1,111,113,-1,115,117,-1,-1,119,-1,121,-1,123,-1,-1,-1,-1,-1,-1,-1,-1,-1,125,-1,127,-1,-1,-1,-1,-1,-1,-1,-1,-1,-1,-1,-1],"loss_changes":[1.78805E3,5.21857E2,8.587207E1,5.6180316E2,1.7712903E2,1.5006444E2,3.6134033E0,0E0,0E0,1.1275513E1,1.8736235E2,0E0,1.5279905E1,1.0764568E1,0E0,7.097168E-1,1.9237526E1,0E0,1.2158379E2,7.885624E0,6.9689417E0,1.9722748E0,0E0,0E0,8.2897766E1,2.3046799E0,2.3760117E1,2.7486572E0,2.1873014E1,3.120613E-1,0E0,1.5986166E0,3.3265533E0,0E0,1.0397526E1,1.12379074E-1,2.7469482E0,1.440094E0,0E0,0E0,1.5300234E1,7.2769165E-2,3.8778473E1,3.631591E1,4.1503553E0,0E0,0E0,0E0,1.4752312E0,4.6258914E-1,3.151598E0,2.791028E-1,2.2997284E0,0E0,0E0,0E0,0E0,2.3788452E-1,0E0,0E0,3.2492268E1,0E0,0E0,0E0,2.5011826E0,7.5395164E0,4.9796486E0,2.3621025E0,0E0,0E0,1.2714416E-1,0E0,0E0,6.495919E-1,2.2102087E0,0E0,0E0,0E0,1.3042824E0,0E0,6.552717E0,0E0,0E0,9.0634155E-1,0E0,2.0429544E0,8.38995E-4,0E0,2.5988468E1,8.0586433E-1,0E0,0E0,0E0,1.031052E0,1.298523E-1,0E0,3.067873E0,3.5139773E-2,0E0,0E0,5.056772E-1,0E0,1.8295935E1,0E0,1.7504005E1,0E0,0E0,0E0,0E0,0E0,0E0,0E0,0E0,0E0,8.150869E-1,0E0,4.7454774E-1,0E0,0E0,0E0,0E0,0E0,0E0,0E0,0E0,0E0,0E0,0E0,0E0],"parents":[2147483647,0,0,1,1,2,2,3,3,4,4,5,5,6,6,9,9,10,10,12,12,13,13,15,15,16,16,18,18,19,19,20,20,21,21,24,24,25,25,26,26,27,27,28,28,29,29,31,31,32,32,34,34,35,35,36,36,37,37,40,40,41,41,42,42,43,43,44,44,48,48,49,49,50,50,51,51,52,52,57,57,60,60,64,64,65,65,66,66,67,67,70,70,73,73,74,74,78,78,80,80,83,83,85,85,86,86,88,88,89,89,93,93,94,94,96,96,97,97,100,100,102,102,104,104,114,114,116,116],"right_children":[2,4,6,8,10,12,14,-1,-1,16,18,-1,20,22,-1,24,26,-1,28,30,32,34,-1,-1,36,38,40,42,44,46,-1,48,50,-1,52,54,56,58,-1,-1,60,62,64,66,68,-1,-1,-1,70,72,74,76,78,-1,-1,-1,-1,80,-1,-1,82,-1,-1,-1,84,86,88,90,-1,-1,92,-1,-1,94,96,-1,-1,-1,98,-1,100,-1,-1,102,-1,104,106,-1,108,110,-1,-1,-1,112,114,-1,116,118,-1,-1,120,-1,122,-1,124,-1,-1,-1,-1,-1,-1,-1,-1,-1,126,-1,128,-1,-1,-1,-1,-1,-1,-1,-1,-1,-1,-1,-1],"split_conditions":[3.1E1,9E0,2E0,1.6E1,2.6E1,2.4E1,3.4E1,-8.772688E-2,9.0650044E-2,2E0,1.9E1,9.083679E-2,1E0,2.6E1,8.923661E-2,2E1,2.3E1,9.515062E-2,2E0,4.2E1,1E0,2.4E1,-5.189812E-2,-8.667002E-2,1.3E1,1E0,1.6E1,2.8E1,2.2E1,4E1,5.0879207E-2,3.8E1,3.3E1,8.863591E-2,3.2E1,2.1E1,6E0,2.5806452E1,1.8230658E-2,8.787626E-2,2.5E1,3E0,2.1E1,2.8E1,1E0,-7.5974375E-2,-2.1868322E-2,-6.5073416E-2,3.2E1,2E0,2.9E1,1E0,2.5E1,1.4980415E-1,8.64048E-2,-8.465172E-2,2.2048356E-2,2.2E1,1.1257103E-3,-8.4001206E-2,1.8E1,-8.727527E-2,-3.5653483E-2,1.13872856E-1,1E0,1E0,2.1E1,1E0,5.5894118E-2,3.8836412E-2,4.4E1,-4.98947E-3,-6.022932E-2,3.4E1,3.8E1,-3.674455E-2,1.5568981E-3,9.039552E-2,3.3E1,-8.490777E-2,1.5E1,9.0724126E-2,-8.0155335E-2,3E1,2.5841879E-2,2.7E1,1E0,9.6520044E-2,2.9E1,1E0,2.0315008E-2,-5.25667E-2,-8.834128E-3,2.5E1,2.8E1,-6.529559E-2,3.2E1,1E0,7.038298E-2,7.702108E-2,1E0,-8.536497E-2,2.3E1,-7.242732E-2,2E1,2.2693522E-2,6.755784E-2,-7.245918E-2,9.498473E-2,-8.125263E-2,-2.3403982E-2,5.266062E-2,-2.3287188E-2,7.9557635E-2,3.6E1,7.336621E-2,4.4E1,5.0283354E-3,-7.327746E-3,-8.01515E-2,-1.26815075E-2,1.0276769E-1,-8.483301E-2,1.2815401E-1,-7.5425915E-2,-1.3929977E-2,5.814812E-2,-5.099784E-2,4.517241E-3],"split_indices":[0,1,2,0,0,1,0,0,0,2,1,0,3,1,0,0,0,0,2,0,16,1,0,0,1,16,1,0,1,0,0,0,0,0,0,0,4,24,0,0,0,4,1,0,16,0,0,0,1,3,1,3,1,0,0,0,0,0,0,0,1,0,0,0,23,4,1,4,0,0,0,0,0,0,0,0,0,0,0,0,1,0,0,0,0,0,23,0,0,3,0,0,0,1,1,0,1,3,0,0,14,0,1,0,1,0,0,0,0,0,0,0,0,0,0,0,0,0,0,0,0,0,0,0,0,0,0,0,0],"split_type":[0,0,0,0,0,0,0,0,0,0,0,0,0,0,0,0,0,0,0,0,0,0,0,0,0,0,0,0,0,0,0,0,0,0,0,0,0,0,0,0,0,0,0,0,0,0,0,0,0,0,0,0,0,0,0,0,0,0,0,0,0,0,0,0,0,0,0,0,0,0,0,0,0,0,0,0,0,0,0,0,0,0,0,0,0,0,0,0,0,0,0,0,0,0,0,0,0,0,0,0,0,0,0,0,0,0,0,0,0,0,0,0,0,0,0,0,0,0,0,0,0,0,0,0,0,0,0,0,0],"sum_hessian":[3.378845E3,2.166131E3,1.2127139E3,4.959084E2,1.6702227E3,2.138371E2,9.988768E2,1.724511E2,3.234573E2,1.2591895E3,4.1103317E2,1.1951359E2,9.43235E1,7.983242E1,9.190444E2,1.0784288E3,1.8076059E2,7.413169E1,3.369015E2,5.8857384E1,3.5466118E1,7.60179E1,3.8145182E0,4.474273E2,6.310015E2,1.1580869E2,6.49519E1,2.2951308E2,1.07388405E2,5.6143864E1,2.7135212E0,1.2726079E1,2.2740038E1,4.1251873E1,3.476603E1,1.3528559E1,6.17473E2,1.1462961E2,1.179084E0,9.214602E0,5.5737293E1,1.1910117E2,1.1041191E2,8.915462E1,1.8233793E1,5.4461334E1,1.6825296E0,8.622727E0,4.103351E0,3.5406992E0,1.9199339E1,6.553158E0,2.8212872E1,3.0617914E0,1.0466767E1,6.162963E2,1.1766757E0,1.1330724E2,1.3223687E0,2.9110023E1,2.6627272E1,1.1705269E2,2.0484815E0,6.305663E0,1.0410625E2,2.7954113E1,6.12005E1,1.6918568E1,1.3152266E0,1.8220432E0,2.2813082E0,1.8112826E0,1.7294166E0,1.2093928E1,7.10541E0,5.1324325E0,1.4207253E0,2.2130936E1,6.0819354E0,9.635394E1,1.6953302E1,1.2310435E1,1.4316835E1,1.03083336E2,1.0229131E0,2.397279E1,3.981324E0,3.4229973E1,2.6970528E1,1.538015E1,1.5384169E0,1.1449977E0,1.1363105E0,2.753468E0,9.340461E0,1.6808081E0,5.4246016E0,4.2245336E0,1.857402E0,1.1952082E0,1.5758093E1,7.6263596E1,2.6819738E1,1.1954538E1,1.201825E1,1.4486148E0,2.5327091E0,7.5089703E0,1.9461557E1,1.248852E1,2.8916302E0,1.3449968E0,1.4084712E0,6.5790324E0,2.761428E0,2.5006175E0,2.9239843E0,2.8288853E0,1.3956482E0,1.4577062E1,1.1810312E0,2.9785807E0,2.3841158E1,2.683297E0,9.334953E0,1.0986526E0,1.6627756E0,1.5685337E0,1.3554505E0],"tree_param":{"num_deleted":"0","num_feature":"39","num_nodes":"129","size_leaf_vector":"1"}},{"base_weights":[2.0816482E-3,-9.7213054E-1,8.981511E-2,-1.0266038E0,-1.4311738E-1,-1.0339497E0,3.8732773E-1,-8.743329E-1,6.297644E-1,-1.0367374E0,5.709122E-2,-5.8111437E-2,7.15515E-1,-7.929761E-2,-6.011549E-1,1.857265E-1,8.165981E-2,-1.0618006E0,-8.667711E-1,2.2075286E-2,6.377527E-2,4.889491E-2,-9.6946967E-1,-1.2267617E-1,8.1469394E-2,-1.0635139E0,-4.2530867E-1,1.2912045E-1,-9.142383E-1,-1.1507722E-1,4.1693352E-2,-8.170647E-2,-2.1064693E-2,-3.3585492E-1,6.901307E-2,-8.583991E-2,-9.587138E-1,5.4482836E-2,-6.952504E-2,-7.922845E-2,-5.891039E-1,1.5365407E-1,-5.4919824E-2,-4.5065832E-1,5.819684E-2,-1.0032693E0,-5.6433344E-1,-6.879841E-1,6.865324E-2,-3.5340287E-2,5.2003782E-2,2.4861833E-2,-6.3533175E-1,-8.1512496E-2,-2.449E-3,-7.097132E-2,-1.4120075E-1,-4.0617767E-1,-7.6934564E-1,-5.8338985E-2,-1.1573844E-2,7.661881E-2,-5.139959E-2,-7.194401E-2,1.5386885E-1,-6.8621375E-2,-1.9906802E-2],"categories":[],"categories_nodes":[],"categories_segments":[],"categories_sizes":[],"default_left":[0,0,0,0,0,0,0,0,0,0,0,0,0,0,0,0,0,0,0,0,0,0,0,0,0,0,0,0,0,0,0,0,0,0,0,0,0,0,0,0,0,0,0,0,0,0,0,0,0,0,0,0,0,0,0,0,0,0,0,0,0,0,0,0,0,0,0],"id":19,"left_children":[1,3,-1,5,7,9,11,13,15,17,-1,-1,19,-1,21,23,-1,25,27,-1,-1,29,31,33,-1,35,37,-1,39,41,-1,-1,-1,43,-1,-1,45,-1,-1,-1,47,49,-1,51,-1,53,55,57,-1,-1,-1,-1,59,-1,-1,-1,61,63,65,-1,-1,-1,-1,-1,-1,-1,-1],"loss_changes":[3.4563728E3,7.63363E1,0E0,1.6905518E1,6.022237E1,8.442627E0,3.787625E0,1.1499405E0,8.822987E0,5.8060303E0,0E0,0E0,4.604101E-2,0E0,4.5784845E0,6.68059E0,0E0,1.043335E0,2.601123E1,0E0,0E0,6.6374266E-1,1.7524529E-1,4.390345E0,0E0,3.305664E-1,3.2177327E0,0E0,4.492157E0,1.1199583E0,0E0,0E0,0E0,2.3748946E0,0E0,0E0,1.5927963E0,0E0,0E0,0E0,6.5111656E0,1.8566865E0,0E0,2.4125144E0,0E0,1.6282806E0,1.8904772E0,5.8818245E-1,0E0,0E0,0E0,0E0,4.9377108E-1,0E0,0E0,0E0,4.7886963E0,1.4272801E1,1.1379871E0,0E0,0E0,0E0,0E0,0E0,0E0,0E0,0E0],"parents":[2147483647,0,0,1,1,3,3,4,4,5,5,6,6,7,7,8,8,9,9,12,12,14,14,15,15,17,17,18,18,21,21,22,22,23,23,25,25,26,26,28,28,29,29,33,33,36,36,40,40,41,41,43,43,45,45,46,46,47,47,52,52,56,56,57,57,58,58],"right_children":[2,4,-1,6,8,10,12,14,16,18,-1,-1,20,-1,22,24,-1,26,28,-1,-1,30,32,34,-1,36,38,-1,40,42,-1,-1,-1,44,-1,-1,46,-1,-1,-1,48,50,-1,52,-1,54,56,58,-1,-1,-1,-1,60,-1,-1,-1,62,64,66,-1,-1,-1,-1,-1,-1,-1,-1],"split_conditions":[3E0,3.2E1,8.981511E-2,1E0,2E0,3E0,2E1,1E0,1E0,2.7E1,5.709122E-2,-5.8111437E-2,1E0,-7.929761E-2,2E0,1E0,8.165981E-2,6E0,2E1,2.2075286E-2,6.377527E-2,3.8E1,5E0,1E0,8.1469394E-2,1E0,3.0263159E1,1.2912045E-1,2E0,2.9E1,4.1693352E-2,-8.170647E-2,-2.1064693E-2,3E0,6.901307E-2,-8.583991E-2,2E0,5.4482836E-2,-6.952504E-2,-7.922845E-2,1E0,1E0,-5.4919824E-2,3.3E1,5.819684E-2,1.1851851E1,2.5E1,2.1E1,6.865324E-2,-3.5340287E-2,5.2003782E-2,2.4861833E-2,3.8E1,-8.1512496E-2,-2.449E-3,-7.097132E-2,1.8E1,2.8E1,1E0,-5.8338985E-2,-1.1573844E-2,7.661881E-2,-5.139959E-2,-7.194401E-2,1.5386885E-1,-6.8621375E-2,-1.9906802E-2],"split_indices":[12,0,0,15,2,2,0,3,3,0,0,0,3,0,3,16,0,4,1,0,0,0,3,4,0,3,24,0,2,1,0,0,0,2,0,0,2,0,0,0,16,16,0,0,0,24,0,1,0,0,0,0,0,0,0,0,1,0,3,0,0,0,0,0,0,0,0],"split_type":[0,0,0,0,0,0,0,0,0,0,0,0,0,0,0,0,0,0,0,0,0,0,0,0,0,0,0,0,0,0,0,0,0,0,0,0,0,0,0,0,0,0,0,0,0,0,0,0,0,0,0,0,0,0,0,0,0,0,0,0,0,0,0,0,0,0,0],"sum_hessian":[3.16402E3,1.6926385E3,1.4713815E3,1.5880516E3,1.0458695E2,1.580111E3,7.9406285E0,5.367465E1,5.09123E1,1.5780006E3,2.110406E0,1.531171E0,6.409457E0,3.5749634E1,1.7925016E1,2.45294E1,2.63829E1,1.3706398E3,2.0736078E2,1.6903893E0,4.719068E0,6.7966504E0,1.1128366E1,1.852177E1,6.00763E0,1.3662913E3,4.3486032E0,3.2735362E0,2.0408723E2,5.6064367E0,1.1902136E0,9.951222E0,1.1771435E0,1.5769236E1,2.7525342E0,1.2444254E3,1.2186579E2,1.0918212E0,3.2567818E0,1.6371407E2,4.0373173E1,4.310411E0,1.2960256E0,1.475261E1,1.0166249E0,1.0810825E2,1.3757539E1,3.8282288E1,2.0908856E0,2.0097973E0,2.3006136E0,2.74633E0,1.2006281E1,1.0635095E2,1.7572995E0,7.181878E0,6.57566E0,9.918951E0,2.8363338E1,9.669437E0,2.3368433E0,1.7746816E0,4.8009787E0,8.692796E0,1.226155E0,2.3690916E1,4.6724215E0],"tree_param":{"num_deleted":"0","num_feature":"39","num_nodes":"67","size_leaf_vector":"1"}},{"base_weights":[1.8933043E-3,-9.581497E-1,8.8956796E-2,-1.0133729E0,-1.4039114E-1,-1.0204816E0,2.7054426E-1,-8.685827E-1,6.100935E-1,-1.0470157E0,-8.4548545E-1,-5.9999477E-2,6.0395855E-1,-9.06238E-1,5.7003186E-3,2.5343236E-1,8.632998E-2,-8.45707E-2,-9.375616E-1,1.2656344E-1,-8.9324397E-1,6.5573305E-2,1.771947E-1,-7.405426E-2,-2.3566749E-2,-4.507322E-2,8.247986E-2,-9.514358E-1,2.6630536E-3,-7.822694E-2,-5.564824E-1,-3.4171625E-3,2.6755795E-2,-2.5794458E-1,6.975214E-2,-9.942279E-1,-5.58881E-1,-6.710842E-1,7.157087E-2,-4.152568E-1,6.3651234E-2,-8.011288E-2,-3.0078527E-2,-6.912445E-2,-1.3513777E-1,-7.228952E-1,3.914606E-2,-5.322581E-1,5.68808E-2,7.032774E-2,-5.834988E-1,-7.598855E-1,-1.0148318E-3,6.4534983E-3,-7.299434E-1,-6.0084194E-2,-2.4445677E-2,-4.2237766E-2,-7.540059E-2,-6.274533E-2,-1.5033532E-2],"categories":[],"categories_nodes":[],"categories_segments":[],"categories_sizes":[],"default_left":[0,0,0,0,0,0,0,0,0,0,0,0,0,0,0,0,0,0,0,0,0,0,0,0,0,0,0,0,0,0,0,0,0,0,0,0,0,0,0,0,0,0,0,0,0,0,0,0,0,0,0,0,0,0,0,0,0,0,0,0,0],"id":20,"left_children":[1,3,-1,5,7,9,11,13,15,17,19,-1,21,23,-1,25,-1,-1,27,-1,29,-1,31,-1,-1,33,-1,35,-1,-1,37,-1,-1,39,-1,41,43,45,-1,47,-1,-1,-1,-1,49,51,-1,53,-1,-1,55,57,-1,-1,59,-1,-1,-1,-1,-1,-1],"loss_changes":[3.1513723E3,7.146582E1,0E0,1.3831421E1,5.5981888E1,5.974243E0,3.5045602E0,1.9017143E0,8.183886E0,4.2492676E-1,2.4564682E1,0E0,5.280423E-1,3.216591E-1,0E0,7.015597E0,0E0,0E0,1.6080704E0,0E0,5.0531006E0,0E0,1.4332227E-1,0E0,0E0,4.646983E0,0E0,1.3831406E0,0E0,0E0,7.54624E0,0E0,0E0,3.5056467E0,0E0,7.9963684E-2,1.6456208E0,2.715393E0,0E0,2.661571E0,0E0,0E0,0E0,0E0,3.646697E0,9.888077E-1,0E0,2.0299487E0,0E0,0E0,2.1024585E-2,1.0316238E0,0E0,0E0,2.1805334E-1,0E0,0E0,0E0,0E0,0E0,0E0],"parents":[2147483647,0,0,1,1,3,3,4,4,5,5,6,6,7,7,8,8,9,9,10,10,12,12,13,13,15,15,18,18,20,20,22,22,25,25,27,27,30,30,33,33,35,35,36,36,37,37,39,39,44,44,45,45,47,47,50,50,51,51,54,54],"right_children":[2,4,-1,6,8,10,12,14,16,18,20,-1,22,24,-1,26,-1,-1,28,-1,30,-1,32,-1,-1,34,-1,36,-1,-1,38,-1,-1,40,-1,42,44,46,-1,48,-1,-1,-1,-1,50,52,-1,54,-1,-1,56,58,-1,-1,60,-1,-1,-1,-1,-1,-1],"split_conditions":[3E0,3.2E1,8.8956796E-2,1E0,2E0,2.7E1,2.1E1,1E0,1.5625E0,1E0,2E1,-5.9999477E-2,2E1,1.0169492E1,5.7003186E-3,1E0,8.632998E-2,-8.45707E-2,1.1627907E1,1.2656344E-1,2E0,6.5573305E-2,2.9E1,-7.405426E-2,-2.3566749E-2,2E0,8.247986E-2,2E0,2.6630536E-3,-7.822694E-2,1E0,-3.4171625E-3,2.6755795E-2,1E0,6.975214E-2,1E0,2.5E1,1E0,7.157087E-2,3E0,6.3651234E-2,-8.011288E-2,-3.0078527E-2,-6.912445E-2,1.8E1,1.5625E0,3.914606E-2,3.3E1,5.68808E-2,7.032774E-2,2.6E1,2.2E1,-1.0148318E-3,6.4534983E-3,1E0,-6.0084194E-2,-2.4445677E-2,-4.2237766E-2,-7.540059E-2,-6.274533E-2,-1.5033532E-2],"split_indices":[12,0,0,15,2,0,0,5,24,3,1,0,1,24,0,16,0,0,24,0,2,0,0,0,0,3,0,2,0,0,16,0,0,5,0,5,0,5,0,2,0,0,0,0,1,24,0,0,0,0,0,1,0,0,3,0,0,0,0,0,0],"split_type":[0,0,0,0,0,0,0,0,0,0,0,0,0,0,0,0,0,0,0,0,0,0,0,0,0,0,0,0,0,0,0,0,0,0,0,0,0,0,0,0,0,0,0,0,0,0,0,0,0,0,0,0,0,0,0,0,0,0,0,0,0],"sum_hessian":[2.955059E3,